tree
version=v3
num_class=1
num_tree_per_iteration=1
label_index=0
max_feature_idx=6
objective=regression
feature_names=trip_duration trip_distance PULocationID DOLocationID time_stamp weekday month
feature_infos=[0:86365] [0:77.180000000000007] [2:265] [1:265] [0:143] [1:7] [1:12]
tree_sizes=7768 7745 7688 7700 7678 7747 7674 7584 7604 7611 7634 7582 7592 7575 7531 7527 7578 7564 7545 7549 7510 7506 7535 7524 7491 7507 7513 7558 7434 7526 7468 7472 7435 7443 7395 7397 7457 7339 7234 7377 7282 7283 7295 7357 7286 7403 7210 7374 7111 7303 7446 7259 7325 7349 7300 7182 7206 7191 7243 7185 7004 7124 7354 7160 7175 7063 7248 7124 7038 7343 7023 6807 7194 7071 7335 7130 7153 7115 7058 7090 7146 7020 6894 7098 6949 6936 6922 6847 6940 6919 7014 6962 7056 6994 7006 6988 6819 6807 6829 6837 6990 6867 6912 6817 6852 6860 6811 6918 6910 6820 6882 6826 6836

Tree=0
num_leaves=80
num_cat=0
split_feature=0 0 0 0 0 2 2 0 2 2 3 3 2 2 3 3 0 4 4 6 4 4 2 4 3 3 3 0 0 3 3 4 3 3 4 0 0 0 4 2 2 3 2 0 0 0 0 0 0 0 3 0 4 0 3 3 0 0 0 0 4 3 4 4 0 3 3 2 2 4 3 3 4 2 4 4 0 0 2
split_gain=1.85316e+09 3.02805e+08 2.60219e+08 4.26608e+07 4.17252e+07 3.73604e+07 7.67741e+07 2.91525e+07 2.6875e+07 2.71515e+07 1.83515e+07 2.44197e+07 1.69304e+07 1.64239e+07 1.32308e+07 3.66027e+07 1.09813e+07 3.20312e+07 7.64157e+08 1.97709e+09 1.90043e+07 5.57779e+08 5.35695e+08 1.09624e+07 1.02873e+07 8.76929e+06 7.93599e+06 7.68824e+06 7.39381e+06 6.55056e+06 6.32367e+06 6.08328e+06 5.74428e+06 9.8516e+06 5.62244e+06 5.28683e+06 5.20186e+06 4.46773e+06 3.99854e+06 3.64468e+06 1.11906e+07 3.57573e+06 3.45364e+06 3.35829e+06 3.29931e+06 2.95885e+06 3.62123e+06 2.78769e+06 2.61929e+06 2.53804e+06 2.49513e+06 2.30611e+06 2.25566e+06 2.05521e+06 2.03364e+06 1.89526e+06 1.78501e+06 1.79398e+06 1.5624e+06 1.49523e+06 1.40157e+06 1.36445e+06 1.34068e+06 1.32027e+06 1.29274e+06 1.1864e+06 3.73398e+06 1.18084e+06 5.62777e+06 1.14991e+06 1.10233e+06 4.48272e+06 1.07144e+06 1.01695e+06 1.00768e+06 1.22603e+06 1.00598e+06 1.00205e+06 898688
threshold=1464.5000000000002 805.50000000000011 2206.5000000000005 500.50000000000006 1124.5000000000002 138.50000000000003 129.50000000000003 35.500000000000007 138.50000000000003 129.50000000000003 138.50000000000003 129.50000000000003 132.50000000000003 132.50000000000003 138.50000000000003 129.50000000000003 1.0000000180025095e-35 75.500000000000014 74.500000000000014 9.5000000000000018 59.500000000000007 60.500000000000007 160.50000000000003 43.500000000000007 132.50000000000003 264.50000000000006 264.50000000000006 327.50000000000006 5288.0000000000009 132.50000000000003 264.50000000000006 116.50000000000001 138.50000000000003 129.50000000000003 42.500000000000007 651.50000000000011 3033.5000000000005 962.50000000000011 44.500000000000007 138.50000000000003 129.50000000000003 264.50000000000006 137.50000000000003 1807.5000000000002 1778.5000000000002 5288.0000000000009 3033.5000000000005 5288.0000000000009 1291.5000000000002 3033.5000000000005 226.50000000000003 3033.5000000000005 116.50000000000001 1778.5000000000002 137.50000000000003 132.50000000000003 5288.0000000000009 3033.5000000000005 1291.5000000000002 3423.0000000000005 116.50000000000001 264.50000000000006 41.500000000000007 42.500000000000007 962.50000000000011 138.50000000000003 129.50000000000003 138.50000000000003 137.50000000000003 118.50000000000001 138.50000000000003 137.50000000000003 23.500000000000004 263.50000000000006 117.50000000000001 44.500000000000007 411.50000000000006 1778.5000000000002 263.50000000000006
decision_type=2 2 2 2 2 2 2 2 2 2 2 2 2 2 2 2 2 2 2 2 2 2 2 2 2 2 2 2 2 2 2 2 2 2 2 2 2 2 2 2 2 2 2 2 2 2 2 2 2 2 2 2 2 2 2 2 2 2 2 2 2 2 2 2 2 2 2 2 2 2 2 2 2 2 2 2 2 2 2
left_child=1 3 5 7 34 6 38 16 9 32 11 45 50 26 15 53 17 18 20 -20 -1 22 -22 58 -17 28 -11 -9 36 -13 51 48 33 56 64 -5 73 60 72 40 -33 47 -14 -40 63 46 -10 49 -25 -34 77 -15 -39 -7 -26 -35 57 -4 -6 -28 -36 -44 -37 -16 -3 66 -45 68 -50 -65 71 -69 -2 -12 75 -46 -29 -8 -30
right_child=2 4 8 35 23 14 12 27 10 13 25 29 42 30 44 24 -18 -19 19 -21 21 -23 -24 31 54 -27 59 76 78 -31 -32 39 41 55 37 62 -38 52 43 -41 -42 -43 61 65 74 -47 -48 -49 67 -51 -52 -53 -54 -55 -56 -57 -58 -59 -60 -61 -62 -63 -64 69 -66 -67 -68 70 -70 -71 -72 -73 -74 -75 -76 -77 -78 -79 -80
leaf_value=16.018411431837574 16.844145420064681 16.103122923002175 17.15637599468797 15.731438634328873 16.496160337018871 16.463745082112045 17.699073288647377 15.531598312461133 17.102944159571148 18.36701886527419 16.9434802533391 18.480859823433075 16.610205609396065 17.644872782169966 16.736846921323195 18.413628868996675 16.205392916094546 15.873328333584743 15.756390771576067 443.79711191543328 16.214331994335197 15.794464215132304 255.15410887242587 16.129029674366887 16.614062056265539 19.981360723920552 20.051353777601669 15.605987509044242 16.101292129395244 17.733518804973038 20.353415677440893 16.303799413418062 17.024430422217936 18.469424748827713 15.897332518308126 15.936066276703139 17.748998291937813 16.007023465131635 16.455821531033088 16.279488050601586 17.094314632872095 19.908524382498658 17.345191555724337 16.721157443663458 17.027603145017267 16.355377777098706 17.841097415530665 16.234601083974784 16.258221476249567 17.787193498261779 18.369982253260744 18.013282246401644 16.151219843740584 16.710897321152558 17.406164622672449 17.811132905116967 16.382515737160723 17.846561140368983 16.761309297196032 22.278362001686801 15.998435882968767 18.696028886503225 15.818321753183191 16.30612730164702 16.290717118529912 16.635308459903143 17.680150025920412 16.24229590985172 17.023354990776088 16.533928791954718 16.16288704106389 17.208659051144803 17.287981833246409 17.51415816247955 16.833253838237209 16.524234072043964 15.657712272509663 17.996385414878503 17.725568818688977
leaf_weight=4237 37684 213086 37701 2898819 127685 216049 46500 3832884 77024 286722 106189 79135 16728 126976 22954 29104 86214 10046 93 38 45 1779 49 784415 9158 2504 2180 1853240 21925 46580 2395 141996 53549 28905 1246634 272534 27695 1001029 260661 294982 65382 1126 199917 48272 12948 9903 21185 8825 166175 13695 33282 63831 371995 137740 70345 17586 5533 12549 98356 1152 472789 1887 2140932 313501 161393 86895 12853 124120 28096 67288 280689 13285 21274 8426 39770 183997 1907567 72569 886
leaf_count=4237 37684 213086 37701 2898819 127685 216049 46500 3832884 77024 286722 106189 79135 16728 126976 22954 29104 86214 10046 93 38 45 1779 49 784415 9158 2504 2180 1853240 21925 46580 2395 141996 53549 28905 1246634 272534 27695 1001029 260661 294982 65382 1126 199917 48272 12948 9903 21185 8825 166175 13695 33282 63831 371995 137740 70345 17586 5533 12549 98356 1152 472789 1887 2140932 313501 161393 86895 12853 124120 28096 67288 280689 13285 21274 8426 39770 183997 1907567 72569 886
internal_value=0 -3.71079 23.0512 -6.3562 2.44301 16.1622 21.1932 -7.86074 35.6189 39.5302 29.1621 34.8867 31.9377 43.4308 12.337 16.4134 8.8911 32.705 88.9696 2478.7 37.7331 121.614 2495.65 5.93188 32.4714 21.1767 48.1887 -8.08686 20.286 44.3636 36.2878 5.14833 29.0269 33.9421 0.304371 -4.17649 22.9651 -0.138781 12.6717 8.13266 11.3451 22.515 26.2964 11.5611 9.39399 23.8667 25.5279 21.6869 4.075 23.88 40.0296 35.6468 1.20629 11.4838 26.5829 44.6928 24.9821 26.8592 12.5151 96.7108 -1.21287 27.4409 -3.08317 7.65608 3.96392 15.3651 18.7406 5.62487 7.66202 7.2121 4.67829 6.99905 20.3704 19.9932 12.3582 11.431 -7.07106 37.89 3.57208
internal_weight=0 1.86006e+07 3.00555e+06 1.30085e+07 5.59211e+06 1.94138e+06 838522 7.69619e+06 1.06418e+06 662725 401452 233827 370883 483256 1.10285e+06 462396 102501 16287 6241 131 6110 1873 94 2.12518e+06 108607 167625 290054 7.59369e+06 165121 125715 193202 1.89914e+06 179469 102274 3.46693e+06 5.31228e+06 142310 3.09245e+06 467639 502360 207378 77195 218532 408681 640458 108112 98209 76069 1.39678e+06 67244 152351 190807 1.37302e+06 353789 79503 46491 55783 50250 226041 3332 1.71942e+06 201804 2.41347e+06 403743 374479 148020 61125 612365 194271 380789 418094 137405 58958 114615 236715 196945 3.76081e+06 119069 22811
internal_count=21606137 18600584 3005553 13008477 5592107 1941376 838522 7696192 1064177 662725 401452 233827 370883 483256 1102854 462396 102501 16287 6241 131 6110 1873 94 2125181 108607 167625 290054 7593691 165121 125715 193202 1899140 179469 102274 3466926 5312285 142310 3092447 467639 502360 207378 77195 218532 408681 640458 108112 98209 76069 1396780 67244 152351 190807 1373024 353789 79503 46491 55783 50250 226041 3332 1719423 201804 2413466 403743 374479 148020 61125 612365 194271 380789 418094 137405 58958 114615 236715 196945 3760807 119069 22811
shrinkage=1


Tree=1
num_leaves=80
num_cat=0
split_feature=1 0 1 1 0 0 1 0 1 1 0 3 0 2 2 6 5 5 2 2 5 0 1 1 1 0 1 1 2 2 3 3 1 1 0 0 2 1 0 0 0 1 0 0 0 0 0 1 0 0 1 0 0 0 1 0 1 3 1 3 3 1 1 2 1 1 0 1 0 1 0 2 2 2 1 3 0 1 1
split_gain=2.16091e+09 3.30367e+08 2.16382e+08 7.21343e+07 4.76304e+07 2.48048e+07 2.28324e+07 1.74616e+07 1.67839e+07 1.50581e+07 1.22077e+07 1.12827e+07 9.71676e+06 1.63607e+07 2.17584e+08 6.63116e+08 1.1613e+09 2.73134e+09 2.2847e+07 7.12828e+07 1.0047e+08 9.28176e+06 8.50969e+06 7.4179e+06 5.76686e+06 5.40963e+06 4.34669e+06 3.80391e+06 1.19042e+07 1.59801e+08 5.6479e+08 2.61449e+09 3.68329e+06 3.42071e+06 3.27867e+06 3.08131e+06 4.13411e+06 2.67022e+06 2.44597e+06 3.63171e+06 2.37378e+06 1.9539e+06 1.55875e+06 1.55314e+06 1.53008e+06 1.44051e+06 1.38275e+06 1.36693e+06 1.12337e+06 1.0842e+06 738665 720275 705333 701973 692225 622896 615433 607585 598822 595338 1.67354e+06 704977 560435 559561 557362 551544 543626 536256 525015 518436 472437 449323 479905 443784 435577 434542 428519 407425 371788
threshold=7.4050000000000011 857.50000000000011 13.925000000000002 3.8750000000000004 521.50000000000011 35.500000000000007 9.6550000000000029 1330.5000000000002 23.210000000000004 2.6350000000000002 1632.5000000000002 263.50000000000006 1.0000000180025095e-35 176.00000000000003 169.50000000000003 9.5000000000000018 3.5000000000000004 2.5000000000000004 160.50000000000003 161.50000000000003 3.5000000000000004 2394.5000000000005 1.0750000000000004 15.905000000000003 5.5050000000000008 2262.5000000000005 2.4650000000000003 0.12500000000000003 90.500000000000014 89.500000000000014 185.50000000000003 229.50000000000003 4.4050000000000011 1.6950000000000001 275.50000000000006 5288.0000000000009 263.50000000000006 8.3050000000000015 1632.5000000000002 5288.0000000000009 2262.5000000000005 1.7950000000000002 3211.5000000000005 2756.5000000000005 1751.5000000000002 2057.5000000000005 1051.5000000000002 5.6050000000000013 1230.5000000000002 681.50000000000011 6.5150000000000006 2881.5000000000005 3211.5000000000005 1068.5000000000002 1.0000000180025095e-35 691.50000000000011 3.3550000000000004 264.50000000000006 2.8450000000000002 132.50000000000003 131.50000000000003 0.12500000000000003 11.035000000000002 135.50000000000003 2.6350000000000002 11.215000000000002 383.50000000000006 16.705000000000002 391.50000000000006 5.6050000000000013 190.50000000000003 147.50000000000003 144.50000000000003 138.50000000000003 5.705000000000001 137.50000000000003 307.50000000000006 4.6250000000000009 1.7650000000000003
decision_type=2 2 2 2 2 2 2 2 2 2 2 2 2 2 2 2 2 2 2 2 2 2 2 2 2 2 2 2 2 2 2 2 2 2 2 2 2 2 2 2 2 2 2 2 2 2 2 2 2 2 2 2 2 2 2 2 2 2 2 2 2 2 2 2 2 2 2 2 2 2 2 2 2 2 2 2 2 2 2
left_child=1 4 6 7 5 12 25 26 23 33 24 -10 13 14 18 -16 17 -17 -1 20 -20 44 27 43 48 37 46 28 29 -7 -31 -32 56 49 70 52 -37 -2 64 45 47 68 -23 -4 62 -40 78 -12 77 -6 -26 -27 -13 -28 -41 -35 -11 67 -43 60 -14 -62 75 -39 -9 -46 -36 -25 -24 -34 -29 72 -61 -65 -42 -8 -69 -5 -3
right_child=2 3 8 10 9 22 21 38 11 32 40 35 59 -15 15 16 -18 -19 19 -21 -22 42 41 57 50 51 53 34 -30 30 31 -33 69 55 66 36 -38 63 39 54 74 58 -44 -45 65 -47 -48 -49 -50 -51 -52 -53 -54 -55 -56 -57 -58 -59 -60 71 61 -63 -64 73 -66 -67 -68 76 -70 -71 -72 -73 -74 -75 -76 -77 -78 -79 -80
leaf_value=-0.037416260157949799 0.78482647934336747 -0.13212161240634587 1.7738336422118177 0.16595326131362811 -0.27280880273622898 -0.38983716067402469 1.0079677792214252 0.10417590440419398 3.0045141287710262 -0.064900249361017445 0.48195334736645523 4.6523129449316034 0.088694634277825882 -0.34597665287739443 -0.29239151297710614 -0.31502355542676203 -0.34824439828212445 738.49468996470625 -0.32148777416151653 -0.33215227064144293 43.015642651799652 1.6068876029651062 -0.35535716671679141 2.2092917371198069 0.4298850559394139 1.2179071702185826 0.016323100012514673 -0.48715939617340509 -0.35406952815898263 -0.44002222743630415 390.07658333301544 -0.47729615753458954 0.18119381827824427 -0.19036455982539036 -0.40192357601691509 8.0811435712617037 26.70199716091156 0.88120164109914401 0.2916772093199676 2.4273067663780328 0.72491710824436029 -0.2328529409706834 1.9098921642447491 2.167494703887245 1.3144923574548881 0.50978970631283427 -0.015847316124066636 0.66741826035873841 0.32074779700550615 -0.20771843527463965 0.56348187075445422 1.4894481897129825 5.8311219006536135 0.091953799125297636 -0.19734106093582279 -0.13346691582958703 0.032913931212154135 2.8418157843792446 -0.039212537552421843 0.084643844764809656 0.68593893504592229 1.8384669069409765 1.2960383389993737 1.1241614709303491 0.19788714912469643 1.4752400754265378 -0.35692557019236643 1.2869699932092313 -0.30633490640698235 0.38572639395310504 -0.4430707878097826 0.175827307829859 -0.55062293359811842 0.98667276629427603 0.9143819943726067 1.1983854005570957 2.3630912890000526 0.26106737991461415 -0.074789662511715482
leaf_weight=7126 208729 579155 76843 274125 1786753 11080 42896 324844 24402 469689 233642 3195 20392 6674 311 29 65 22 265 1223 270 138240 926716 66996 274702 71081 659442 1081238 55144 800 55 194 91383 993935 1599797 435 32 59152 302281 253 65830 431387 61250 37178 116756 100991 729429 172846 381783 996589 165982 37203 2105 573739 35600 932145 244535 6135 43997 7423 10682 1515 98681 113803 310174 98279 1156357 927 1330029 46874 1387151 39107 4959 121197 56261 99360 450636 191064 552572
leaf_count=7126 208729 579155 76843 274125 1786753 11080 42896 324844 24402 469689 233642 3195 20392 6674 311 29 65 22 265 1223 270 138240 926716 66996 274702 71081 659442 1081238 55144 800 55 194 91383 993935 1599797 435 32 59152 302281 253 65830 431387 61250 37178 116756 100991 729429 172846 381783 996589 165982 37203 2105 573739 35600 932145 244535 6135 43997 7423 10682 1515 98681 113803 310174 98279 1156357 927 1330029 46874 1387151 39107 4959 121197 56261 99360 450636 191064 552572
internal_value=0 -3.12565 31.8931 3.07168 -5.83568 -7.37927 24.2095 0.780037 46.443 -3.58103 8.33127 69.4916 8.26805 30.8681 57.9537 755.231 2795.71 6367.74 24.4398 126.539 430.992 28.3092 -7.5744 45.3543 6.67021 19.8126 -0.425832 -8.31437 -0.842718 27.5212 400.564 1715.79 0.286323 -4.28109 -8.41058 109.271 187.142 18.432 4.25384 6.0685 12.3777 -6.14118 33.9984 38.0438 25.8202 6.92598 -1.39059 11.2163 5.1437 -4.99006 9.60408 26.224 102.41 1.03021 -3.5764 -3.25657 -0.628215 46.943 -4.29863 3.97131 7.31605 16.5819 24.0896 20.3731 2.99898 27.7592 -7.66089 46.8259 -6.52931 5.01075 -9.24766 1.85432 -3.39562 21.0651 16.2445 22.8193 47.2176 4.10038 -2.08258
internal_weight=0 1.96706e+07 1.93551e+06 5.98472e+06 1.36859e+07 8.12401e+06 1.26663e+06 4.16848e+06 668884 5.5619e+06 1.81624e+06 30169 100063 15985 9311 427 116 51 8884 1758 535 655462 8.02394e+06 638715 1.28766e+06 611165 3.09434e+06 5.29182e+06 67273 12129 1049 249 852481 4.70942e+06 5.22454e+06 5767 467 502881 1.07414e+06 439125 528579 2.73213e+06 199490 114021 455972 403272 1.86116e+06 406488 846972 2.78334e+06 440684 108284 5300 1.23318e+06 35853 1.92608e+06 714224 524694 475384 84078 32589 12197 240937 294152 635018 215035 2.75615e+06 518559 2.25674e+06 138257 2.46839e+06 51489 12382 235000 122091 142256 451563 465189 1.13173e+06
internal_count=21606137 19670626 1935511 5984715 13685911 8124008 1266627 4168480 668884 5561903 1816235 30169 100063 15985 9311 427 116 51 8884 1758 535 655462 8023945 638715 1287656 611165 3094337 5291816 67273 12129 1049 249 852481 4709422 5224543 5767 467 502881 1074143 439125 528579 2732129 199490 114021 455972 403272 1861156 406488 846972 2783342 440684 108284 5300 1233181 35853 1926080 714224 524694 475384 84078 32589 12197 240937 294152 635018 215035 2756154 518559 2256745 138257 2468389 51489 12382 235000 122091 142256 451563 465189 1131727
shrinkage=0.05


Tree=2
num_leaves=80
num_cat=0
split_feature=1 1 1 1 1 1 1 1 3 1 3 4 4 6 2 2 2 4 1 1 1 1 2 3 3 4 4 1 1 2 1 4 4 4 1 4 4 4 4 4 4 4 1 2 1 1 1 1 1 4 5 5 2 1 4 1 3 2 4 2 2 2 4 2 2 1 2 5 5 4 4 1 4 5 4 4 1 5 4
split_gain=1.95043e+09 2.88712e+08 2.03138e+08 4.76068e+07 4.52638e+07 2.34122e+07 2.01383e+07 1.51474e+07 1.01826e+07 1.00512e+07 7.44565e+06 2.16302e+07 5.19229e+08 1.17886e+09 3.07173e+09 1.35579e+07 3.33866e+08 5.27431e+08 6.69466e+06 6.26633e+06 5.88672e+06 5.48506e+06 5.13109e+06 3.9378e+07 3.11579e+08 8.16484e+08 7.55822e+09 3.86343e+06 3.43059e+06 2.39417e+06 1.55864e+06 1.3758e+06 1.22103e+06 1.21032e+06 1.19428e+06 1.06772e+06 1.02874e+06 983065 978957 968910 902397 826895 790673 770492 755107 746744 744030 693802 677408 621637 706391 610924 605140 593289 560904 550527 614571 546853 484841 462709 447890 442578 431024 424677 408336 399640 394221 384794 381719 458340 375886 355330 354307 351902 349023 342502 341857 328287 322842
threshold=7.2950000000000008 2.4650000000000003 13.925000000000002 1.3650000000000004 4.2950000000000008 9.3550000000000022 0.12500000000000003 23.210000000000004 263.50000000000006 0.87500000000000011 263.50000000000006 75.500000000000014 74.500000000000014 9.5000000000000018 210.50000000000003 161.50000000000003 160.50000000000003 59.500000000000007 15.905000000000003 5.705000000000001 3.1950000000000007 1.8950000000000002 132.50000000000003 185.50000000000003 187.00000000000003 69.500000000000014 65.500000000000014 11.035000000000002 8.1950000000000021 131.50000000000003 0.59500000000000008 45.500000000000007 45.500000000000007 41.500000000000007 1.0950000000000004 46.500000000000007 45.500000000000007 47.500000000000007 114.50000000000001 39.500000000000007 43.500000000000007 119.50000000000001 12.405000000000003 137.50000000000003 4.9050000000000011 6.5150000000000006 3.6650000000000005 1.5950000000000004 1.0000000180025095e-35 119.50000000000001 5.5000000000000009 5.5000000000000009 97.500000000000014 2.1850000000000005 115.50000000000001 19.435000000000006 264.50000000000006 133.50000000000003 47.500000000000007 130.50000000000003 147.50000000000003 130.50000000000003 113.50000000000001 137.50000000000003 144.50000000000003 1.0000000180025095e-35 129.50000000000003 5.5000000000000009 5.5000000000000009 119.50000000000001 44.500000000000007 16.365000000000006 46.500000000000007 5.5000000000000009 18.500000000000004 118.50000000000001 2.7950000000000004 5.5000000000000009 119.50000000000001
decision_type=2 2 2 2 2 2 2 2 2 2 2 2 2 2 2 2 2 2 2 2 2 2 2 2 2 2 2 2 2 2 2 2 2 2 2 2 2 2 2 2 2 2 2 2 2 2 2 2 2 2 2 2 2 2 2 2 2 2 2 2 2 2 2 2 2 2 2 2 2 2 2 2 2 2 2 2 2 2 2
left_child=1 3 5 6 20 28 10 18 -9 30 22 12 15 -14 -15 16 -12 -18 57 36 32 37 23 29 25 26 -25 33 70 65 -8 -22 -3 -7 -11 -23 -6 -5 51 -29 -30 74 43 61 -38 72 75 -39 60 50 76 63 -27 -37 73 71 -57 59 -36 -4 64 -41 -45 66 -24 -1 -35 78 69 -49 -2 -20 -21 -42 -31 77 -34 -33 -60
right_child=2 4 7 21 19 27 9 8 -10 34 11 -13 13 14 -16 -17 17 -19 55 45 31 35 48 24 -26 52 -28 39 40 41 -32 46 49 38 58 53 44 47 -40 42 54 -43 -44 62 -46 -47 -48 68 -50 -51 -52 -53 -54 -55 -56 56 -58 -59 67 -61 -62 -63 -64 -65 -66 -67 -68 -69 -70 -71 -72 -73 -74 -75 -76 -77 -78 -79 -80
leaf_value=0.04430279241575729 0.63377542310896251 -0.078353117930019589 1.8959148837622413 -0.25508153167545849 0.23081819150958807 1.007679476364886 -0.43472109772202566 2.8542884374705899 5.1903922245389609 -0.31755275920573472 -0.045352223630272651 -0.16558866595514724 -0.27957546029366176 755.46222027142846 -13.657290143125199 -0.35496078205298343 -1.0297515887641504 189.8406621555813 2.0438850743923735 0.39405789073404662 0.051383226947761387 -0.17085389451146071 0.030220743593719797 -2.9161293179341232 -0.2545101914443188 -4.7747167927016951 1019.4042559884844 1.2307510961349466 0.81708748856642066 -0.29418792248402953 -0.37280994522138461 0.19314613973648667 0.049182261052134607 1.2957709280006466 -0.32188309035227336 -0.10015435598416196 0.30762546303671801 -0.20407701097207409 1.1213274923783658 1.415445667992371 1.1250772696240108 -0.1616781045444719 1.5998296004148733 1.5358926209752812 0.40645040562308976 0.59938112619558748 0.21892997588167687 -0.12279481691281596 -0.28019040687443891 -0.015095791424942683 -0.010536226542683415 1.159753438074032 -0.35567247396028501 -0.04611162789617268 0.93552082121573887 2.3035307666363045 3.0616739803511162 1.9156001185158116 -0.2330632153316346 1.5938695304905293 0.070098421274007172 1.1112414140190745 1.3335564741073247 1.3793132687144816 -0.52478848697878588 -0.31051462092710946 0.91071222793280038 -0.29468508862071752 -0.19827650951688555 -0.19593445736576218 0.7854736725282272 2.2149056247557977 0.51365514652282029 0.9562605931884014 0.98372385815297303 0.086807262188515422 0.1156514499212552 0.096292518235726141 -0.28722995082396763
leaf_weight=17931 51777 279079 19214 483451 213853 58031 1634951 24402 5767 2068733 2704 12812 118 21 34 4886 89 61 33147 80707 269643 353441 6280 130 2978 152 21 43703 55447 567 2687892 302923 404492 21914 334640 1176324 405842 1361593 99661 22148 143053 2203 96520 101988 369073 248505 552215 872664 39651 430981 289728 55521 158 893657 88971 126004 2731 57524 1247153 37283 42218 25983 35476 166330 7017 14237 9541 515441 384106 283882 193234 362812 266123 39364 9267 207280 370733 123022 352929
leaf_count=17931 51777 279079 19214 483451 213853 58031 1634951 24402 5767 2068733 2704 12812 118 21 34 4886 89 61 33147 80707 269643 353441 6280 130 2978 152 21 43703 55447 567 2687892 302923 404492 21914 334640 1176324 405842 1361593 99661 22148 143053 2203 96520 101988 369073 248505 552215 872664 39651 430981 289728 55521 158 893657 88971 126004 2731 57524 1247153 37283 42218 25983 35476 166330 7017 14237 9541 515441 384106 283882 193234 362812 266123 39364 9267 207280 370733 123022 352929
internal_value=0 -3.00494 29.9443 -5.19123 3.72278 22.6984 -6.63102 44.1209 66.017 -6.8344 4.36478 22.0772 63.1847 1776.57 5600.13 24.888 79.6496 1531.82 43.0866 8.10132 1.57546 -2.95927 1.7943 10.2658 113.338 878.37 2785.22 26.4246 17.8972 2.24716 -7.92451 3.06648 0.353173 24.3858 -5.79158 -1.81073 6.55803 -3.78138 25.0816 28.9964 20.0179 14.278 29.6751 28.4679 7.09387 10.6645 3.53024 -3.56145 -2.4469 0.711408 1.1215 26.1262 -50.4486 -1.53646 20.7689 44.5958 46.3923 36.1416 -5.3192 33.9318 -0.192106 25.0245 29.6735 26.949 -5.2533 -2.25467 23.5795 -5.14227 -3.1018 -2.81495 15.0683 44.0118 9.7165 21.773 18.2009 2.79041 1.61939 3.30345 -4.90021
internal_weight=0 1.96286e+07 1.97755e+06 1.48144e+07 4.8142e+06 1.30866e+06 9.00527e+06 668884 30169 8.84174e+06 163535 20725 7913 173 55 7740 2854 150 638715 1.5841e+06 3.2301e+06 5.80912e+06 142810 47644 3439 461 151 736816 571846 44205 4.32284e+06 1.45508e+06 1.77501e+06 410998 4.5189e+06 2.42342e+06 988768 3.3857e+06 352967 325818 326835 12037 282115 185595 774915 595335 1.18544e+06 2.90224e+06 95166 1.49593e+06 1.06495e+06 253306 310 2.06998e+06 271388 524694 128735 114021 2.45016e+06 56497 55515 48131 137464 197785 13297 32168 31455 2.11552e+06 1.54065e+06 1.15655e+06 245011 395959 346830 182417 9834 633225 775225 425945 1.60008e+06
internal_count=21606137 19628591 1977546 14814392 4814199 1308662 9005274 668884 30169 8841739 163535 20725 7913 173 55 7740 2854 150 638715 1584103 3230096 5809118 142810 47644 3439 461 151 736816 571846 44205 4322843 1455083 1775013 410998 4518896 2423422 988768 3385696 352967 325818 326835 12037 282115 185595 774915 595335 1185440 2902245 95166 1495934 1064953 253306 310 2069981 271388 524694 128735 114021 2450163 56497 55515 48131 137464 197785 13297 32168 31455 2115523 1540652 1156546 245011 395959 346830 182417 9834 633225 775225 425945 1600082
shrinkage=0.05


Tree=3
num_leaves=80
num_cat=0
split_feature=1 1 1 1 1 1 1 1 3 1 3 4 4 6 2 2 2 4 1 1 1 2 3 3 4 4 1 1 1 2 2 4 4 1 4 4 1 4 4 1 1 4 4 4 1 4 1 1 1 2 1 5 3 2 2 4 4 4 4 5 2 4 5 1 5 4 2 5 1 1 4 5 1 5 4 4 4 5 3
split_gain=1.76026e+09 2.67389e+08 1.76385e+08 4.37352e+07 4.27531e+07 2.10671e+07 1.86769e+07 1.2924e+07 9.1898e+06 7.30389e+06 6.7197e+06 1.95213e+07 4.68604e+08 1.06392e+09 2.77224e+09 1.2236e+07 3.01314e+08 4.76007e+08 6.60349e+06 6.07199e+06 5.46275e+06 4.63081e+06 3.55386e+07 2.812e+08 7.36877e+08 6.8213e+09 4.01977e+06 3.45713e+06 3.27961e+06 2.16074e+06 1.46012e+06 1.26413e+06 1.18773e+06 1.17097e+06 1.14465e+06 989411 957562 862841 844180 803323 756978 746272 731629 804041 717219 690152 644396 642653 611361 611190 575378 569781 553221 548308 546139 523308 495252 447660 444244 420410 404221 404063 542585 398555 372203 414858 368523 362516 360675 358734 341423 391643 341141 329965 454926 320611 315436 308820 301901
threshold=7.4050000000000011 2.4950000000000006 14.635000000000003 1.2950000000000002 4.4050000000000011 9.8050000000000015 0.12500000000000003 23.210000000000004 263.50000000000006 0.79500000000000015 263.50000000000006 75.500000000000014 74.500000000000014 9.5000000000000018 210.50000000000003 161.50000000000003 160.50000000000003 59.500000000000007 1.7950000000000002 3.2550000000000003 5.8050000000000006 132.50000000000003 185.50000000000003 187.00000000000003 69.500000000000014 65.500000000000014 8.4650000000000016 12.125000000000002 16.365000000000006 131.50000000000003 137.50000000000003 46.500000000000007 46.500000000000007 0.99500000000000011 47.500000000000007 42.500000000000007 2.0950000000000002 47.500000000000007 46.500000000000007 0.56500000000000006 6.6350000000000007 119.50000000000001 39.500000000000007 113.50000000000001 3.7750000000000004 115.50000000000001 1.4950000000000003 2.8850000000000002 1.0000000180025095e-35 160.50000000000003 5.1050000000000013 5.5000000000000009 264.50000000000006 130.50000000000003 97.500000000000014 38.500000000000007 113.50000000000001 44.500000000000007 48.500000000000007 5.5000000000000009 147.50000000000003 119.50000000000001 5.5000000000000009 10.695000000000002 5.5000000000000009 119.50000000000001 144.50000000000003 5.5000000000000009 1.0000000180025095e-35 7.8850000000000007 119.50000000000001 5.5000000000000009 1.0000000180025095e-35 5.5000000000000009 119.50000000000001 118.50000000000001 46.500000000000007 5.5000000000000009 7.5000000000000009
decision_type=2 2 2 2 2 2 2 2 2 2 2 2 2 2 2 2 2 2 2 2 2 2 2 2 2 2 2 2 2 2 2 2 2 2 2 2 2 2 2 2 2 2 2 2 2 2 2 2 2 2 2 2 2 2 2 2 2 2 2 2 2 2 2 2 2 2 2 2 2 2 2 2 2 2 2 2 2 2 2
left_child=1 3 5 6 19 26 10 28 78 39 21 12 15 -14 -15 16 -12 -18 37 32 38 22 29 24 25 -24 57 30 49 68 53 -21 -3 -11 -20 -28 73 -5 -6 -8 76 72 -32 51 75 59 -39 70 60 -4 -40 63 -30 -7 -26 -29 77 -2 -35 -37 66 62 -38 -44 65 -48 -23 -60 -1 -59 71 -34 -31 74 -36 -33 -22 -57 -9
right_child=2 4 7 18 20 27 9 8 -10 33 11 -13 13 14 -16 -17 17 -19 34 31 40 48 23 -25 54 -27 35 55 52 41 42 44 47 58 36 45 61 46 50 -41 -42 -43 43 -45 -46 -47 64 -49 -50 -51 -52 -53 -54 -55 -56 56 -58 69 67 -61 -62 -63 -64 -65 -66 -67 -68 -69 -70 -71 -72 -73 -74 -75 -76 -77 -78 -79 -80
leaf_value=0.042087642273452824 0.63805349935385702 -0.066521028183106262 1.7504352748222651 -0.25668848951738876 0.23843190564110719 1.1683579694593982 -0.41512467606138848 4.1845007158229377 4.9308726373776341 -0.32125375814366192 -0.043084609519260436 -0.1573092291428615 -0.26559668998470748 717.68909418015255 -12.974425714945093 -0.33721273884602654 -0.97826402388261957 180.3486264338259 -0.16759887154827435 0.0649838567048968 0.38760491157745736 0.028709684560508437 -2.7703229492673511 -0.24178468634021366 -4.5359811469520395 968.43403959728425 0.82675694777229936 1.2818545482269326 2.1244661619022023 1.0627519206755853 1.0709183589172724 0.17174936924020551 0.056965270351258604 -0.32005350589132009 -0.077385380394189573 1.1336802068430585 -0.011129193650952624 -0.21142122734102045 0.31516473468255701 -0.36644457288136462 0.59003023773055174 -0.15359422463418082 1.3203956021372802 1.1778357968005106 0.22501867084851865 0.93840801694094955 -0.13516861692469551 0.07918839816144696 -0.26618087938484897 2.0109063104188936 0.40662775887421854 1.210897008429678 2.6198900392318567 0.94021379359911017 -0.33788885876913616 1.6301438923280083 1.3940771690717897 0.72257942125328778 -0.25141880286447388 0.96533473677529524 0.066593529024539119 -0.097733439243061021 -0.097281349453510579 1.4682154762933199 -0.20594044997151892 -0.2024326101926715 -0.49854907691616762 -0.29710914996402665 -0.29498889274258566 0.85115312760932249 -0.034733755893455398 -0.030517275442368076 0.4270028291042926 -0.15573984814581321 -0.1557690959387735 0.095791237972161561 0.5018123848624797 1.4285448706901429 2.6905750494981588
leaf_weight=17931 56756 307309 76871 497201 202899 66306 1503840 343 5767 1980859 2704 12812 118 21 34 4886 89 61 459147 282565 78749 6280 130 2978 152 21 59598 25336 485846 6768 35493 415525 472459 392419 719555 173681 684676 1340063 402804 1941710 249512 2203 85617 84365 540792 98191 954675 645646 39651 31854 300026 51511 5701 43688 158 85567 48856 95681 1776324 47155 42218 340761 249303 97561 414891 301666 7017 574545 14237 125291 258032 175441 3066 325466 249224 208694 260313 24417 24059
leaf_count=17931 56756 307309 76871 497201 202899 66306 1503840 343 5767 1980859 2704 12812 118 21 34 4886 89 61 459147 282565 78749 6280 130 2978 152 21 59598 25336 485846 6768 35493 415525 472459 392419 719555 173681 684676 1340063 402804 1941710 249512 2203 85617 84365 540792 98191 954675 645646 39651 31854 300026 51511 5701 43688 158 85567 48856 95681 1776324 47155 42218 340761 249303 97561 414891 301666 7017 574545 14237 125291 258032 175441 3066 325466 249224 208694 260313 24417 24059
internal_value=0 -2.82105 28.785 -4.91596 3.6677 22.15 -6.43487 42.52 62.7161 -6.64668 4.14654 20.9733 60.0255 1687.75 5320.12 23.6436 75.6671 1455.23 -2.97957 1.66153 8.10676 1.70459 9.75255 107.671 834.452 2645.96 18.1557 26.1914 41.5049 2.1348 24.7378 3.19717 0.465682 -5.83918 -1.89768 20.2752 -1.63776 -3.91333 6.56545 -7.75383 10.4786 13.5641 25.7253 26.2044 3.6574 20.9739 -3.71182 0.821422 -2.32455 36.5349 7.08417 27.1562 42.6042 21.5548 -47.9262 29.8577 30.5309 15.2662 -5.41612 21.9547 -0.182501 -1.02258 -0.682508 27.9825 -3.29759 -3.02639 -4.99063 -5.25171 -2.14193 15.9096 0.278108 0.665528 17.2908 -2.24366 -1.951 2.92709 9.50574 31.7078 54.2315
internal_weight=0 1.96706e+07 1.93551e+06 1.48699e+07 4.80077e+06 1.30507e+06 8.33323e+06 630441 30169 8.1697e+06 163535 20725 7913 173 55 7740 2854 150 6.53663e+06 3.30646e+06 1.4943e+06 142810 47644 3439 461 151 656353 648717 600272 44205 464541 1.44758e+06 1.85889e+06 4.72415e+06 3.02813e+06 378625 2.56898e+06 3.5085e+06 905729 3.44555e+06 588574 12037 354547 319054 1.16501e+06 319027 3.0113e+06 1.55158e+06 95166 108725 702830 234689 491547 109994 310 184176 158840 277728 2.74329e+06 220836 55515 1.27474e+06 933979 183178 1.67123e+06 1.25634e+06 13297 2.35087e+06 32168 220972 905932 647900 9834 1.29424e+06 968779 624219 339062 109984 24402
internal_count=21606137 19670626 1935511 14869860 4800766 1305070 8333232 630441 30169 8169697 163535 20725 7913 173 55 7740 2854 150 6536628 3306463 1494303 142810 47644 3439 461 151 656353 648717 600272 44205 464541 1447576 1858887 4724147 3028132 378625 2568985 3508496 905729 3445550 588574 12037 354547 319054 1165011 319027 3011295 1551578 95166 108725 702830 234689 491547 109994 310 184176 158840 277728 2743288 220836 55515 1274740 933979 183178 1671232 1256341 13297 2350869 32168 220972 905932 647900 9834 1294245 968779 624219 339062 109984 24402
shrinkage=0.05


Tree=4
num_leaves=80
num_cat=0
split_feature=1 1 1 1 1 1 1 1 3 1 3 4 4 6 2 2 2 4 1 1 1 1 2 3 3 4 4 1 1 2 4 1 4 4 4 4 1 4 4 4 4 1 4 1 4 5 4 1 1 1 1 4 5 5 2 1 3 2 2 2 2 2 4 1 2 2 2 2 1 5 4 5 4 4 4 4 2 4 5
split_gain=1.58877e+09 2.35354e+08 1.65591e+08 4.0089e+07 3.57088e+07 1.91972e+07 1.68889e+07 1.23298e+07 8.29379e+06 6.4872e+06 6.06453e+06 1.76179e+07 4.22915e+08 9.60188e+08 2.50194e+09 1.1043e+07 2.71936e+08 4.29596e+08 5.81211e+06 5.45068e+06 5.0396e+06 4.91152e+06 4.17931e+06 3.20736e+07 2.53783e+08 6.65032e+08 6.15622e+09 3.60355e+06 2.35901e+06 1.95006e+06 1.17323e+06 1.02466e+06 1.01783e+06 980861 914300 885680 877336 839921 780528 777191 740189 726602 673511 668417 638337 599564 615049 593048 568845 557835 551753 542313 629283 512831 492890 483543 517154 480982 471557 420632 397700 554097 393404 370225 364810 351772 339896 332592 325509 320925 315953 315206 313237 313192 307510 299000 296561 293421 292705
threshold=7.2950000000000008 2.3950000000000005 13.925000000000002 4.1850000000000014 1.2850000000000004 9.2050000000000018 0.12500000000000003 23.210000000000004 263.50000000000006 0.79500000000000015 263.50000000000006 75.500000000000014 74.500000000000014 9.5000000000000018 210.50000000000003 161.50000000000003 160.50000000000003 59.500000000000007 5.5050000000000008 15.905000000000003 3.0950000000000002 1.7850000000000004 132.50000000000003 185.50000000000003 187.00000000000003 69.500000000000014 65.500000000000014 10.855000000000002 8.1950000000000021 131.50000000000003 46.500000000000007 0.99500000000000011 38.500000000000007 46.500000000000007 46.500000000000007 40.500000000000007 6.3150000000000004 44.500000000000007 116.50000000000001 47.500000000000007 111.50000000000001 0.58500000000000008 119.50000000000001 3.5650000000000004 43.500000000000007 5.5000000000000009 119.50000000000001 2.0750000000000006 12.125000000000002 4.8050000000000006 1.0000000180025095e-35 119.50000000000001 5.5000000000000009 5.5000000000000009 97.500000000000014 19.435000000000006 264.50000000000006 137.50000000000003 133.50000000000003 130.50000000000003 137.50000000000003 138.50000000000003 48.500000000000007 1.4950000000000003 147.50000000000003 137.50000000000003 125.50000000000001 144.50000000000003 1.0000000180025095e-35 5.5000000000000009 119.50000000000001 5.5000000000000009 45.500000000000007 23.500000000000004 46.500000000000007 46.500000000000007 130.50000000000003 118.50000000000001 5.5000000000000009
decision_type=2 2 2 2 2 2 2 2 2 2 2 2 2 2 2 2 2 2 2 2 2 2 2 2 2 2 2 2 2 2 2 2 2 2 2 2 2 2 2 2 2 2 2 2 2 2 2 2 2 2 2 2 2 2 2 2 2 2 2 2 2 2 2 2 2 2 2 2 2 2 2 2 2 2 2 2 2 2 2
left_child=1 4 5 20 6 28 10 19 -9 41 22 12 15 -14 -15 16 -12 -18 37 58 33 39 23 29 25 26 -25 32 72 68 -22 -11 -7 -3 -23 -29 75 -5 53 -6 48 -8 73 70 -30 46 63 78 57 -39 64 52 -35 65 -27 -21 -57 76 59 -4 -46 -62 -33 -41 67 66 -34 -24 -1 -64 71 -32 -2 -31 -38 -20 -37 -45 -36
right_child=2 3 7 18 21 27 9 8 -10 31 11 -13 13 14 -16 -17 17 -19 36 55 30 34 50 24 -26 54 -28 35 44 42 43 62 38 51 47 40 74 49 -40 45 -42 -43 -44 77 60 -47 -48 -49 -50 -51 -52 -53 -54 -55 -56 56 -58 -59 -60 -61 61 -63 69 -65 -66 -67 -68 -69 -70 -71 -72 -73 -74 -75 -76 -77 -78 -79 -80
leaf_value=0.03998325959822549 0.57234422520846717 -0.080032063722865074 1.7187264040331198 0.18837222707870638 -0.24467625050495526 0.87727869234508216 -0.39310253288905556 2.5759952985504428 4.6843290293677411 -0.30519106937248308 -0.040930388380150645 -0.1494437727716115 -0.25231683738529681 681.80464361281622 -12.32570441610673 -0.32035210324951491 -0.92935082769712052 171.33119887054943 0.33287146867192785 1.985335235652594 0.034489950279411617 -0.16808794386949644 0.027274201618578686 -2.631806806016427 -0.22969545357885021 -4.3091821050608381 920.01232764834458 1.1031171467713388 0.72711544785408244 -0.26927871441338785 0.16136465664351274 -0.30457654495015229 1.1474329904643878 0.060411100601362872 -0.094613168219413651 1.3014984598316104 0.4380665037854079 0.2642621907072556 0.98833307549234972 -0.17507430140801161 1.2135044838124891 -0.34704495128332047 -0.14591450012520232 0.211112182995219 0.7854396296114956 -0.21624061584042736 -0.21153207993098222 -0.057736136170899482 1.4822027858528681 0.34935307570534746 -0.2528718546704451 -0.027864493940883396 -0.024080602571709891 1.02399984765979 -0.32099441659719319 2.0821309114112911 2.7775957761252599 1.3672892281380387 1.7320546559299883 1.4307417689003352 1.0302651156855795 0.86238954980074622 -0.23942078835705224 -0.12887733613997454 0.063263819262389859 1.2217548068565833 0.79660705920927499 -0.47362160861860603 -0.28023945260765498 -0.28279801063490562 0.061365408472893318 0.070113245026377072 0.70953421983868281 0.89431982796497334 0.55331133502410357 0.43902902020527218 0.98661538433337348 0.13666264696235744 -0.1496347207342455
leaf_weight=17931 53127 299644 19214 205356 498893 52904 1590595 24402 5767 1980859 2704 12812 118 21 34 4886 89 61 86334 395959 290842 392920 6280 130 2978 152 21 50136 49600 617 329594 385577 23449 809721 966643 14551 75238 434049 93702 805950 95587 1854955 2203 379460 42571 745563 534167 1048745 84176 346267 39651 445563 302776 57275 158 126004 2731 103378 57524 37283 108022 90194 1745310 938947 42218 172939 9785 7017 14237 564260 211324 132753 191884 9217 250950 286266 15382 203223 322312
leaf_count=17931 53127 299644 19214 205356 498893 52904 1590595 24402 5767 1980859 2704 12812 118 21 34 4886 89 61 86334 395959 290842 392920 6280 130 2978 152 21 50136 49600 617 329594 385577 23449 809721 966643 14551 75238 434049 93702 805950 95587 1854955 2203 379460 42571 745563 534167 1048745 84176 346267 39651 445563 302776 57275 158 126004 2731 103378 57524 37283 108022 90194 1745310 938947 42218 172939 9785 7017 14237 564260 211324 132753 191884 9217 250950 286266 15382 203223 322312
internal_value=0 -2.71207 27.0259 3.14062 -4.76077 20.4838 -6.12238 39.8254 59.5803 -6.32498 3.93922 19.9247 57.0242 1603.36 5054.12 22.4614 71.8838 1382.47 7.1309 38.8923 1.16657 -2.957 1.61936 9.26492 102.288 792.729 2513.66 23.6708 15.8809 2.02806 2.49966 -5.55779 21.6391 0.0562909 -1.95034 25.9645 9.33702 5.56687 22.2455 -3.73713 26.5894 -7.36614 12.8859 2.91864 17.809 -3.54638 -3.29173 -1.71311 27.6088 6.04043 -2.20832 0.37495 0.748319 23.1271 -45.5299 40.2541 41.9377 26.3237 32.6257 30.5736 18.4819 19.0775 -5.15647 -3.0043 -0.173376 23.8625 20.8828 -4.7411 -2.03484 -5.00037 2.24028 2.70328 13.5957 16.4263 10.5346 8.28863 22.7937 3.70293 -2.16743
internal_weight=0 1.96286e+07 1.97755e+06 5.08936e+06 1.45392e+07 1.30866e+06 8.28509e+06 668884 30169 8.12156e+06 163535 20725 7913 173 55 7740 2854 150 1.68446e+06 638715 3.4049e+06 6.25414e+06 142810 47644 3439 461 151 773264 535398 44205 1.5472e+06 4.67601e+06 410054 1.8577e+06 2.73062e+06 363210 698788 985672 357150 3.52352e+06 313074 3.44555e+06 12037 1.25635e+06 290387 3.02463e+06 2.27906e+06 2.3377e+06 217487 780316 95166 1.55806e+06 1.1125e+06 263448 310 524694 128735 133311 114021 56497 240787 198216 2.69515e+06 1.7449e+06 55515 206173 33234 13297 32168 2.30957e+06 673671 462347 245011 9834 326188 372600 29933 582683 1.28896e+06
internal_count=21606137 19628591 1977546 5089360 14539231 1308662 8285091 668884 30169 8121556 163535 20725 7913 173 55 7740 2854 150 1684460 638715 3404900 6254140 142810 47644 3439 461 151 773264 535398 44205 1547196 4676006 410054 1857704 2730620 363210 698788 985672 357150 3523520 313074 3445550 12037 1256354 290387 3024627 2279064 2337700 217487 780316 95166 1558060 1112497 263448 310 524694 128735 133311 114021 56497 240787 198216 2695147 1744897 55515 206173 33234 13297 32168 2309570 673671 462347 245011 9834 326188 372600 29933 582683 1288955
shrinkage=0.05


Tree=5
num_leaves=80
num_cat=0
split_feature=0 0 0 0 0 2 2 0 0 0 3 2 2 2 3 3 0 4 4 6 4 4 2 4 3 3 0 2 0 4 0 3 3 0 2 2 2 2 0 2 2 2 3 0 4 0 3 3 3 2 4 3 0 4 4 4 3 0 3 3 0 4 3 5 4 4 3 3 2 3 4 3 3 3 0 2 0 2 2
split_gain=1.1454e+09 1.82392e+08 1.66121e+08 2.63876e+07 2.42758e+07 1.96288e+07 4.22672e+07 1.9159e+07 2.11573e+07 1.86823e+07 9.34008e+06 8.79906e+06 7.01774e+06 8.83641e+06 6.99829e+06 2.08776e+07 6.89357e+06 2.23946e+07 5.56051e+08 1.49165e+09 1.2447e+07 4.67197e+08 6.59696e+08 6.30419e+06 6.11605e+06 6.04645e+06 5.75382e+06 4.55928e+06 4.11443e+06 3.42338e+06 3.33924e+06 3.17953e+06 6.2065e+06 3.16675e+06 2.41831e+06 4.63708e+06 2.39511e+06 3.47997e+06 2.28504e+06 2.0646e+06 6.63736e+06 2.00442e+06 2.00074e+06 1.99798e+06 1.93081e+06 1.87458e+06 1.61877e+06 1.35447e+06 2.86144e+06 1.28172e+06 1.23216e+06 1.21965e+06 1.21648e+06 1.2118e+06 1.19898e+06 1.112e+06 1.01985e+06 1.00937e+06 978387 2.33088e+06 922213 790333 788686 747879 1.85626e+06 716852 697675 1.79478e+06 1.05426e+06 723214 682747 668544 665502 2.46262e+06 619008 616619 614327 610248 3.40312e+06
threshold=1448.5000000000002 787.50000000000011 2152.5000000000005 1096.5000000000002 482.50000000000006 138.50000000000003 129.50000000000003 2647.5000000000005 5288.0000000000009 35.500000000000007 264.50000000000006 132.50000000000003 138.50000000000003 129.50000000000003 138.50000000000003 129.50000000000003 1.0000000180025095e-35 75.500000000000014 74.500000000000014 9.5000000000000018 59.500000000000007 60.500000000000007 162.50000000000003 43.500000000000007 264.50000000000006 132.50000000000003 3211.5000000000005 132.50000000000003 307.50000000000006 116.50000000000001 626.50000000000011 138.50000000000003 129.50000000000003 933.50000000000011 138.50000000000003 129.50000000000003 135.50000000000003 129.50000000000003 1726.5000000000002 138.50000000000003 129.50000000000003 137.50000000000003 132.50000000000003 1751.5000000000002 42.500000000000007 1265.5000000000002 226.50000000000003 138.50000000000003 129.50000000000003 263.50000000000006 41.500000000000007 137.50000000000003 1751.5000000000002 43.500000000000007 115.50000000000001 45.500000000000007 264.50000000000006 1265.5000000000002 138.50000000000003 129.50000000000003 3718.5000000000005 40.500000000000007 264.50000000000006 1.5000000000000002 65.500000000000014 41.500000000000007 138.50000000000003 131.50000000000003 138.50000000000003 132.50000000000003 113.50000000000001 264.50000000000006 138.50000000000003 129.50000000000003 395.50000000000006 135.50000000000003 1726.5000000000002 138.50000000000003 137.50000000000003
decision_type=2 2 2 2 2 2 2 2 2 2 2 2 2 2 2 2 2 2 2 2 2 2 2 2 2 2 2 2 2 2 2 2 2 2 2 2 2 2 2 2 2 2 2 2 2 2 2 2 2 2 2 2 2 2 2 2 2 2 2 2 2 2 2 2 2 2 2 2 2 2 2 2 2 2 2 2 2 2 2
left_child=1 4 5 33 9 6 38 12 10 16 26 46 13 58 15 52 17 18 20 -20 -1 22 -22 57 34 -17 36 -15 -11 45 -6 32 -14 50 35 -10 37 -9 53 40 -31 -13 -34 65 -35 -25 76 48 -36 -49 -3 -27 -7 -2 -46 -40 -29 -5 59 -4 75 -32 -33 64 -51 -16 67 -38 -68 -69 -52 -43 73 -57 -30 -28 -8 78 -47
right_child=2 3 7 23 30 14 11 8 24 28 -12 41 31 27 43 25 -18 -19 19 -21 21 -23 -24 29 -26 51 60 56 74 39 61 62 42 44 47 -37 66 -39 55 -41 -42 71 -44 -45 54 77 -48 49 -50 63 70 -53 -54 -55 -56 72 -58 -59 -60 -61 -62 -63 -64 -65 -66 -67 68 69 -70 -71 -72 -73 -74 -75 -76 -77 -78 -79 -80
leaf_value=-0.029308359241017653 0.66831841165176331 0.071258613753378885 0.82837983131742754 0.36686008020416871 -0.21110918069706988 0.36777708228454636 1.265603389566718 1.2842842471238005 0.45233068340400528 -0.3624978796002023 3.669337899561572 0.48190811347336598 0.80059002661310696 1.7456077883394927 0.57295528807676044 1.8877726216511101 0.17905623487044312 -0.15673408360013799 -0.27450503760829886 374.50321176889781 246.33734234546091 -1.0237788630694469 -12.13185140169584 0.099320547481176497 5.6157236847844656 0.48007627182847101 1.8170412702791516 1.2389126734815248 -0.30673067487669708 0.23235105942127743 -0.054316851046266101 0.72046846479377491 1.9035908114057829 0.20856913820426148 0.30033453922388598 1.6917205783119316 1.2485046548987784 1.8360653479488924 0.92073875890212431 0.2151144688290855 0.82711460223014177 1.0409087078795751 1.2621055451855794 0.48331935153346067 0.0023149764018906864 0.20134498149541569 1.8324192685772822 0.10202838668521097 1.7627778241610355 16.254877262250073 -0.081447477907556742 1.0930347536863978 0.55677246588521123 0.34905573814526858 0.10327861470340555 0.544614973719176 2.818716187687142 0.57170361277089254 0.76110744145082077 1.5576838720855091 1.897240032090364 -0.14234208158644673 2.2651570747737266 1.5812165980198116 0.79715743617942703 0.28610967066735465 1.4191896970621825 1.8987465189735901 1.0476984314841153 1.4372320658886677 -0.012318058216286003 2.0132819492186136 0.48918649008100845 1.2895222201930325 -0.26646827267359824 1.6029841772737179 1.5104755310549884 0.17944360873270837 0.78152512682865816
leaf_weight=4246 34088 200572 31950 135931 2830779 216784 39649 43734 16536 3400972 5722 16883 67612 97189 23083 27102 85827 10102 94 37 47 1779 52 829714 635 9207 68637 92351 1936522 153919 286522 103456 21260 171152 10039 13883 46229 82437 25526 320863 67470 193237 28382 242911 1035929 181429 30929 21966 5016 31 1146893 68452 140209 232040 410602 58775 1033 107854 48523 16673 134478 2317633 833 790 52 386073 40610 21936 36053 13847 518706 1784 107541 13677 1882769 65988 72352 460173 29366
leaf_count=4246 34088 200572 31950 135931 2830779 216784 39649 43734 16536 3400972 5722 16883 67612 97189 23083 27102 85827 10102 94 37 47 1779 52 829714 635 9207 68637 92351 1936522 153919 286522 103456 21260 171152 10039 13883 46229 82437 25526 320863 67470 193237 28382 242911 1035929 181429 30929 21966 5016 31 1146893 68452 140209 232040 410602 58775 1033 107854 48523 16673 134478 2317633 833 790 52 386073 40610 21936 36053 13847 518706 1784 107541 13677 1882769 65988 72352 460173 29366
internal_value=0 -2.96137 17.8695 1.70373 -5.07154 12.2437 15.9361 27.4624 31.1557 -6.25998 33.192 24.1809 22.9035 26.1609 9.50393 12.4826 7.1668 25.9812 73.0042 2111.57 29.3966 97.1853 2211.51 4.34318 14.6269 24.8953 32.7768 30.1176 -6.45 3.76962 -3.47038 18.6731 22.2459 -0.0287436 13.7188 20.3596 29.6442 32.8961 9.73327 5.92311 8.2722 20.0912 30.7366 7.39459 0.99527 2.99148 30.2443 8.38804 15.7518 3.53402 -0.916406 20.4073 8.8401 7.79899 0.619476 12.238 25.1278 9.14972 18.3989 21.5692 36.0926 -2.65314 14.6561 41.1114 131.41 6.04585 27.0585 29.0858 24.8897 34.4031 -1.19838 20.9961 11.362 13.7047 -5.73766 34.2424 28.4758 4.23434 5.64341
internal_weight=0 1.8528e+07 3.07818e+06 5.77057e+06 1.27574e+07 1.9403e+06 826481 1.13788e+06 628619 7.32245e+06 559671 354834 509262 287719 1.11382e+06 461754 102184 16357 6255 131 6124 1878 99 2.28672e+06 68948 104761 553949 190573 7.22026e+06 2.04293e+06 5.43493e+06 221543 117254 3.48385e+06 68313 30419 284846 126171 471647 542252 221389 211904 49642 652067 1.61768e+06 1.50068e+06 142930 37894 15055 22839 1.86617e+06 77659 356993 266128 1.44653e+06 205519 93384 243785 97146 48623 269103 2.60416e+06 104289 873 83 409156 158675 82012 76663 35783 1.6656e+06 195021 179993 72452 3.81929e+06 134625 112001 670968 210795
internal_count=21606137 18527954 3078183 5770573 12757381 1940302 826481 1137881 628619 7322447 559671 354834 509262 287719 1113821 461754 102184 16357 6255 131 6124 1878 99 2286719 68948 104761 553949 190573 7220263 2042934 5434934 221543 117254 3483854 68313 30419 284846 126171 471647 542252 221389 211904 49642 652067 1617683 1500682 142930 37894 15055 22839 1866171 77659 356993 266128 1446531 205519 93384 243785 97146 48623 269103 2604155 104289 873 83 409156 158675 82012 76663 35783 1665599 195021 179993 72452 3819291 134625 112001 670968 210795
shrinkage=0.05


Tree=6
num_leaves=80
num_cat=0
split_feature=1 0 1 1 0 0 1 0 1 1 0 3 0 0 4 4 6 4 4 2 0 1 0 2 0 1 1 2 2 3 3 1 1 0 0 1 1 0 1 0 0 0 0 0 0 0 0 0 0 1 1 1 2 1 0 3 3 4 1 1 0 2 1 1 3 3 2 0 0 1 1 2 2 0 0 4 3 3 3
split_gain=1.31337e+09 2.04676e+08 1.37005e+08 3.94255e+07 3.02169e+07 1.58638e+07 1.55465e+07 1.25607e+07 1.11932e+07 8.35476e+06 7.88028e+06 7.74557e+06 7.30918e+06 6.00561e+06 2.0614e+07 5.05429e+08 1.34236e+09 1.14939e+07 4.21653e+08 5.95375e+08 5.6051e+06 4.43425e+06 4.32483e+06 1.20623e+07 3.13993e+06 2.93152e+06 2.71305e+06 1.04275e+07 1.55762e+08 5.91494e+08 2.422e+09 2.20839e+06 1.95798e+06 1.79075e+06 3.13922e+06 1.77531e+06 1.51605e+06 1.47679e+06 1.38309e+06 1.29162e+06 1.24308e+06 1.15031e+06 1.13609e+06 1.09501e+06 905859 669573 646131 638560 633358 621754 618429 615255 532162 504143 479859 464969 1.16317e+06 888553 674076 457236 440326 428616 428177 413905 455357 412778 406888 368436 365930 352038 338927 335578 326927 326499 367529 324851 317583 317176 313432
threshold=7.2950000000000008 863.50000000000011 13.925000000000002 3.9750000000000005 531.50000000000011 35.500000000000007 9.3550000000000022 1343.5000000000002 23.210000000000004 2.7750000000000004 1654.5000000000002 263.50000000000006 2467.5000000000005 1.0000000180025095e-35 75.500000000000014 74.500000000000014 9.5000000000000018 59.500000000000007 60.500000000000007 162.50000000000003 347.50000000000006 15.905000000000003 5288.0000000000009 263.50000000000006 2104.5000000000005 5.3050000000000006 0.12500000000000003 90.500000000000014 89.500000000000014 185.50000000000003 229.50000000000003 2.6950000000000007 4.6250000000000009 5288.0000000000009 1870.5000000000002 1.8650000000000004 1.5650000000000002 2325.5000000000005 8.0050000000000008 1837.5000000000002 230.50000000000003 1068.5000000000002 2881.5000000000005 3423.0000000000005 696.50000000000011 1253.5000000000002 2756.5000000000005 3211.5000000000005 1571.5000000000002 10.505000000000001 5.4050000000000011 1.0000000180025095e-35 161.50000000000003 6.205000000000001 2325.5000000000005 132.50000000000003 131.50000000000003 117.50000000000001 0.12500000000000003 2.6950000000000007 109.50000000000001 147.50000000000003 11.445000000000002 19.435000000000006 264.50000000000006 144.50000000000003 134.50000000000003 1134.5000000000002 5288.0000000000009 3.6050000000000004 1.1850000000000003 263.50000000000006 138.50000000000003 5288.0000000000009 2881.5000000000005 95.500000000000014 264.50000000000006 137.50000000000003 137.50000000000003
decision_type=2 2 2 2 2 2 2 2 2 2 2 2 2 2 2 2 2 2 2 2 2 2 2 2 2 2 2 2 2 2 2 2 2 2 2 2 2 2 2 2 2 2 2 2 2 2 2 2 2 2 2 2 2 2 2 2 2 2 2 2 2 2 2 2 2 2 2 2 2 2 2 2 2 2 2 2 2 2 2
left_child=1 4 6 7 5 13 24 31 21 35 25 68 39 14 15 17 -17 -1 19 -19 26 42 47 -24 38 45 27 28 -7 -30 -31 41 69 34 48 44 75 50 -2 49 -28 -3 -4 -14 -6 -5 -26 71 -9 78 -12 -35 -20 -27 -36 56 -15 58 -58 -38 -23 65 77 -62 -65 -57 -40 -33 -10 -11 -42 -13 -68 74 -39 -22 -49 -41 -8
right_child=2 3 8 10 9 20 12 33 11 32 37 22 43 55 -16 16 -18 18 52 -21 36 60 23 -25 46 53 40 -29 29 30 -32 67 -34 51 54 -37 59 73 66 62 70 -43 -44 -45 -46 -47 -48 76 -50 -51 -52 -53 -54 -55 -56 61 57 -59 -60 -61 63 -63 -64 64 -66 -67 72 -69 -70 -71 -72 -73 -74 -75 -76 -77 -78 -79 -80
leaf_value=-0.10909220099242645 0.5614412674680016 -0.067190903584736172 1.3840237711735652 0.15381921594380138 -0.2027235782820084 -0.40948514916307088 0.74702913591674125 0.12580870524433874 2.303234276093963 -0.040366801501998922 0.39417923287998718 3.6863157156473401 1.2796189873514709 0.08342702653898576 -0.16861628933300174 -0.29042310733948984 355.77805736644854 234.02046843183803 -1.9630637320287669 -11.525258841881387 -0.28354133821441557 0.76338386253322943 6.7609415270715063 37.689519841530746 0.881521601907441 0.30970122119190158 -0.37260033322811104 -0.3097072938544001 -0.36856737060089634 398.55723892211915 -0.41833296815554305 0.029186331003844348 0.20524217240979517 2.2968874430797146 0.33906029307576269 -0.11704250522215309 -0.20359572085918032 0.64482097973872776 0.62562159866443345 0.91462247118425799 -0.32545368098256361 0.0090849499852007614 1.7322686786385828 1.5580082467485525 -0.14691117261604711 0.25196275137562113 1.1277593539777058 2.1754025136143706 0.2155997570975727 0.99284968440047816 0.52316594690983786 -0.17258451757698073 -0.21675971743561587 0.41110102872121584 0.52542462851008054 0.12359461847980012 0.74755563376765499 -0.16760928418923549 1.9623370118314831 -0.067104343334031133 1.8053702793947535 0.15560018586086871 1.173978468551744 1.8947588203475858 2.5443444247863241 -0.45680682478783752 0.83816056728779653 0.091864134552362739 2.9951937076636104 0.04254033295531881 -0.27328574204733053 1.674946074742373 0.71649524929636865 0.33493048780813606 0.88145170301083009 -0.25125348513802254 4.8128344823517022 1.0783269839821992 0.90042940516977465
leaf_weight=4052 168595 1298797 81038 404397 2056605 10273 47975 523001 22150 451547 189405 2959 148892 20236 10011 93 37 47 785 52 1735408 968 433 34 83462 278573 1777524 51734 730 50 159 661820 117775 254 152610 1502252 742120 69044 58707 42252 2065535 797982 32939 46309 1124528 304749 39132 121 314483 163514 182432 36083 982 218904 44645 5798 8550 2374 1318 66888 394298 38931 80185 125762 2757 6495 104154 363098 2091 178717 366602 223 117511 6528 21525 1413553 2013 98720 108852
leaf_count=4052 168595 1298797 81038 404397 2056605 10273 47975 523001 22150 451547 189405 2959 148892 20236 10011 93 37 47 785 52 1735408 968 433 34 83462 278573 1777524 51734 730 50 159 661820 117775 254 152610 1502252 742120 69044 58707 42252 2065535 797982 32939 46309 1124528 304749 39132 121 314483 163514 182432 36083 982 218904 44645 5798 8550 2374 1318 66888 394298 38931 80185 125762 2757 6495 104154 363098 2091 178717 366602 223 117511 6528 21525 1413553 2013 98720 108852
internal_value=0 -2.46764 24.5796 2.4772 -4.57623 -5.77273 18.6307 0.838644 36.2342 -2.74111 6.57737 55.1035 21.667 6.76178 24.4754 70.5705 2021.04 27.7247 92.6665 2100.94 -5.92466 35.3459 87.9879 180.254 14.717 5.22542 -6.71892 -0.202315 27.445 417.301 1900.61 -0.175199 0.362216 3.79353 4.03584 -3.23678 -5.06725 10.0561 13.4922 19.7759 -6.81636 -0.763244 29.6933 26.9133 -3.65988 3.91991 19.2024 79.8825 3.19052 18.4926 9.14926 -3.10645 -19.8513 7.0864 7.62481 3.36326 6.32323 14.0174 18.1961 -3.84621 36.5759 1.48653 21.6346 36.6154 38.1739 -3.6612 14.8533 1.02782 47.2584 -0.337155 -6.35181 70.9071 15.4732 13.5289 14.0212 -5.38095 93.2658 20.5852 17.0701
internal_weight=0 1.96301e+07 1.97605e+06 5.86833e+06 1.37618e+07 8.33034e+06 1.30826e+06 4.19277e+06 667786 5.43142e+06 1.67556e+06 30024 736699 99761 16059 6048 130 5918 1866 99 8.23058e+06 637762 5783 467 571561 1.20662e+06 4.27261e+06 62946 11212 939 209 3.1217e+06 748039 1.07108e+06 1.03474e+06 4.68338e+06 3.95797e+06 468934 448967 541498 4.20966e+06 2.09678e+06 113977 195201 3.18113e+06 709146 122594 5316 837484 320341 371837 36337 1767 497477 197255 83702 32478 12242 9868 809008 523785 51224 221157 522817 128519 12293 280372 1.02492e+06 24241 630264 2.43214e+06 3182 221665 97097 90569 3.14896e+06 2134 140972 156827
internal_count=21606137 19630091 1976046 5868330 13761761 8330337 1308260 4192773 667786 5431424 1675557 30024 736699 99761 16059 6048 130 5918 1866 99 8230576 637762 5783 467 571561 1206623 4272607 62946 11212 939 209 3121697 748039 1071076 1034739 4683385 3957969 468934 448967 541498 4209661 2096779 113977 195201 3181133 709146 122594 5316 837484 320341 371837 36337 1767 497477 197255 83702 32478 12242 9868 809008 523785 51224 221157 522817 128519 12293 280372 1024918 24241 630264 2432137 3182 221665 97097 90569 3148961 2134 140972 156827
shrinkage=0.05


Tree=7
num_leaves=80
num_cat=0
split_feature=1 1 1 1 1 1 1 1 3 1 3 2 2 6 4 4 4 4 2 4 4 1 1 2 2 3 3 4 1 1 1 1 2 5 1 1 3 3 4 1 4 1 4 4 2 4 4 2 2 1 4 1 4 1 4 4 3 2 2 3 5 4 5 4 1 4 4 6 2 1 4 3 5 5 3 4 4 2 3
split_gain=1.18542e+09 1.79113e+08 1.19078e+08 3.20886e+07 2.65612e+07 1.41271e+07 1.24789e+07 9.57193e+06 6.99038e+06 6.31541e+06 4.39072e+06 1.28489e+07 2.0819e+08 5.52322e+08 1.64657e+09 2.42437e+09 1.7842e+07 7.24662e+08 1.51831e+09 4.78868e+06 2.56828e+07 4.03212e+06 3.94056e+06 3.43609e+06 7.04303e+07 3.45271e+08 1.51541e+09 6.1575e+09 3.18628e+06 3.00593e+06 2.20118e+06 2.18469e+06 1.1434e+06 977555 966082 943721 925903 907544 878081 810760 770890 667544 646874 605365 595620 789680 570246 526840 526751 523826 490635 451963 445934 431555 427998 426427 414135 406740 472319 404709 394742 561648 356037 349685 336644 332362 1.2023e+07 2.2377e+07 330001 327337 313889 297751 274119 272454 265293 265079 257657 257589 254692
threshold=7.4050000000000011 2.5950000000000002 14.635000000000003 1.385 4.5950000000000006 9.9750000000000032 0.12500000000000003 23.210000000000004 263.50000000000006 0.8650000000000001 263.50000000000006 172.00000000000003 169.50000000000003 9.5000000000000018 75.500000000000014 53.500000000000007 60.500000000000007 59.500000000000007 140.50000000000003 75.500000000000014 74.500000000000014 1.9850000000000001 3.4650000000000003 90.500000000000014 89.500000000000014 185.50000000000003 210.50000000000003 69.500000000000014 5.9050000000000011 8.6050000000000022 16.365000000000006 12.125000000000002 137.50000000000003 3.5000000000000004 0.64500000000000013 1.0000000180025095e-35 132.50000000000003 131.50000000000003 47.500000000000007 1.1450000000000002 44.500000000000007 1.6650000000000003 41.500000000000007 45.500000000000007 106.50000000000001 68.500000000000014 44.500000000000007 135.50000000000003 130.50000000000003 2.9950000000000006 120.50000000000001 6.7750000000000012 116.50000000000001 8.0050000000000008 30.500000000000004 115.50000000000001 264.50000000000006 137.50000000000003 130.50000000000003 264.50000000000006 5.5000000000000009 118.50000000000001 5.5000000000000009 48.500000000000007 4.0850000000000009 75.500000000000014 74.500000000000014 9.5000000000000018 130.50000000000003 5.205000000000001 48.500000000000007 42.500000000000007 5.5000000000000009 5.5000000000000009 7.5000000000000009 49.500000000000007 119.50000000000001 147.50000000000003 185.50000000000003
decision_type=2 2 2 2 2 2 2 2 2 2 2 2 2 2 2 2 2 2 2 2 2 2 2 2 2 2 2 2 2 2 2 2 2 2 2 2 2 2 2 2 2 2 2 2 2 2 2 2 2 2 2 2 2 2 2 2 2 2 2 2 2 2 2 2 2 2 2 2 2 2 2 2 2 2 2 2 2 2 2
left_child=1 3 5 6 22 29 10 30 74 34 23 12 16 -14 15 -15 17 -12 -19 20 -18 41 38 24 78 -26 27 -27 46 53 47 32 48 -16 -8 36 37 -25 -3 75 -24 70 -31 -23 45 -38 -6 68 -7 -40 -39 -30 71 -2 -34 62 65 58 -33 -32 61 -45 -56 -43 -42 66 -13 -68 -4 -48 -5 -44 76 -73 -9 -11 -72 -46 -1
right_child=2 4 7 21 28 31 9 8 -10 39 11 56 13 14 33 -17 19 18 -20 -21 -22 43 40 35 25 26 -28 -29 51 42 59 57 54 -35 -36 -37 44 50 49 -41 64 63 52 60 77 -47 69 -49 -50 -51 -52 -53 -54 -55 55 -57 -58 -59 -60 -61 -62 -63 -64 -65 -66 -67 67 -69 -70 -71 72 73 -74 -75 -76 -77 -78 -79 -80
leaf_value=-0.088973871495314105 0.58515496911815523 -0.038015081422756974 1.581457528961093 -0.20718208583405351 0.20381645391184719 0.97040449910671756 -0.33188732932059911 3.6420722924417528 4.1794270126924333 -0.27886268881807508 -0.072628508982997317 -0.30746842222906112 -0.22952882083094722 -9.5827900385856619 -11.401227077510622 759.61345718928749 -1.6069832082095807 -21.05241723193063 506.17987484064975 -0.087232243278922539 -32.156072673282111 -0.12028950173238034 0.068751365988798149 0.028313463387250427 -0.11768338223232384 1004.7581180584432 -0.24682967142136986 -27.57936609203999 0.40369674949377599 0.69438124169082394 1.7427292646467329 1.278654039378267 0.86439876236419699 -0.29138114146718924 -0.28426018286539473 -0.20553487731719713 -5.8398112509691842 0.91638066031242682 0.024596815143322407 -0.19973635436176504 0.14755165348424748 -0.17069717685227842 0.68248852796562431 -0.014213353209617134 -0.19785885792828398 -0.1962463753415814 0.27308611650932429 1.6097638710982427 0.73921349408859804 0.082740046051820948 -0.10631767252068339 0.49775048618956741 0.78624520748832516 0.70083331155258943 1.150603408294494 0.977936583038164 0.82288016051034829 1.2893077287008561 1.0252117278685631 2.1653752763448972 -0.084991806732426886 -0.082422646540723898 1.000270784136656 -0.10852618961886847 0.20771219183772641 -0.147349394302106 -0.18797146218721983 -50.808674472921041 1.3110041926766678 0.34453607003701503 -0.12823428367457793 0.96072911924606597 -0.18667659443720905 0.82127124684120367 2.2251951704862494 -0.23571857511504124 -0.18051876830452479 0.05575326924070282 -0.69208513673694383
leaf_weight=21205 161820 332861 15902 303418 176859 60343 2237985 335 5783 419185 2244 4002 293 20 36 21 979 36 22 5770 74 324037 233612 8401 1505 20 258 52 336192 55678 485036 33099 23933 44 2031023 48426 102 7417 838854 1883346 633882 267258 12736 1060821 13596 158 357659 54024 41639 719740 1393 205992 91493 160686 178550 71991 777 109723 41347 5731 500030 421798 50531 1471261 367262 6361 61 34 38797 290497 993922 166720 429842 44336 23906 2362610 308854 37983 1908
leaf_count=21205 161820 332861 15902 303418 176859 60343 2237985 335 5783 419185 2244 4002 293 20 36 21 979 36 22 5770 74 324037 233612 8401 1505 20 258 52 336192 55678 485036 33099 23933 44 2031023 48426 102 7417 838854 1883346 633882 267258 12736 1060821 13596 158 357659 54024 41639 719740 1393 205992 91493 160686 178550 71991 777 109723 41347 5731 500030 421798 50531 1471261 367262 6361 61 34 38797 290497 993922 166720 429842 44336 23906 2362610 308854 37983 1908
internal_value=0 -2.31682 23.6284 -3.95859 3.22901 18.1779 -5.14736 34.924 52.3483 -5.30566 3.51826 17.0996 44.0899 737.667 2535.04 7687.92 12.6224 88.7497 3578.64 -13.062 -75.0767 -2.18023 1.62118 1.53728 12.1958 200.766 1127.11 5183.62 6.90547 15.0887 34.0514 21.6832 20.4415 -105.816 -6.18456 -0.726234 1.64735 8.00251 0.714061 -4.50138 3.01074 -2.81677 17.03 -1.13861 -0.462617 -48.2052 5.6679 29.9803 17.5202 1.02893 15.0935 8.78861 17.5849 12.8558 21.3581 21.6817 -5.8164 24.562 22.7579 34.9533 -0.931501 -0.672371 22.3489 -2.36167 3.39242 -7.47129 -14.4957 -366.097 27.7926 6.10219 -3.20538 18.3453 -3.04107 18.6287 44.8955 -4.8444 -2.81259 -0.221956 -2.77523
internal_weight=0 1.9672e+07 1.93414e+06 1.51786e+07 4.49341e+06 1.30462e+06 9.09735e+06 629514 30024 8.93415e+06 163198 20774 9539 414 121 41 9125 2302 58 6823 1053 6.08124e+06 3.12621e+06 142424 24948 1835 330 72 1.3672e+06 693469 599490 611156 426987 80 4.26901e+06 117476 69050 17211 1.89146e+06 4.66514e+06 1.23476e+06 3.77456e+06 370963 2.30669e+06 51839 260 825015 108723 101982 1.55859e+06 8810 542184 315285 322506 325005 301072 11235 184169 74446 490767 1.98265e+06 1.48262e+06 229081 1.73852e+06 1.00114e+06 10458 4097 95 54699 648156 2.03604e+06 223792 1.73262e+06 211056 24241 2.7818e+06 1.30278e+06 51579 23113
internal_count=21606137 19671998 1934139 15178588 4493410 1304625 9097347 629514 30024 8934149 163198 20774 9539 414 121 41 9125 2302 58 6823 1053 6081241 3126211 142424 24948 1835 330 72 1367199 693469 599490 611156 426987 80 4269008 117476 69050 17211 1891455 4665141 1234756 3774555 370963 2306686 51839 260 825015 108723 101982 1558594 8810 542184 315285 322506 325005 301072 11235 184169 74446 490767 1982649 1482619 229081 1738519 1001144 10458 4097 95 54699 648156 2036036 223792 1732618 211056 24241 2781795 1302776 51579 23113
shrinkage=0.05


Tree=8
num_leaves=80
num_cat=0
split_feature=1 0 1 1 0 0 1 0 1 0 0 3 1 1 0 4 4 6 6 4 4 0 0 2 1 0 1 2 2 3 3 0 0 0 0 1 0 4 4 0 1 0 1 1 0 0 1 0 0 1 2 1 1 0 4 2 1 0 3 0 0 1 1 1 3 0 1 0 2 3 2 2 2 2 3 3 2 2 4
split_gain=1.06994e+09 1.67734e+08 1.15727e+08 3.1553e+07 2.2939e+07 1.34456e+07 1.29437e+07 1.06637e+07 9.55243e+06 7.85755e+06 6.51083e+06 6.30881e+06 6.08276e+06 5.35943e+06 4.9056e+06 1.70263e+07 4.67892e+08 1.21276e+09 9.48524e+06 2.64024e+07 7.80249e+08 4.00719e+06 3.90316e+06 1.08862e+07 2.54016e+06 2.3144e+06 2.20496e+06 8.73451e+06 1.31725e+08 5.04797e+08 2.06477e+09 1.6751e+06 2.34115e+06 1.67056e+06 1.50826e+06 1.4774e+06 1.43758e+06 1.3885e+06 7.51106e+06 1.36704e+06 1.06091e+06 1.04475e+06 1.0264e+06 927797 905311 901528 682163 600690 576301 558754 557188 553900 516834 493131 414957 413036 399116 397554 390826 378565 419200 369250 368893 367178 409394 353196 344686 330099 302859 286619 286453 788823 284298 359605 284110 580422 385180 591650 2.29302e+06
threshold=7.1450000000000005 843.50000000000011 13.305000000000001 3.7750000000000004 513.50000000000011 35.500000000000007 9.0750000000000011 1303.5000000000002 23.210000000000004 1591.5000000000002 2394.5000000000005 263.50000000000006 2.6950000000000007 15.905000000000003 1.0000000180025095e-35 75.500000000000014 74.500000000000014 9.5000000000000018 6.0000000000000009 59.500000000000007 60.500000000000007 335.50000000000006 5288.0000000000009 263.50000000000006 5.205000000000001 2057.5000000000005 0.12500000000000003 90.500000000000014 89.500000000000014 185.50000000000003 229.50000000000003 1632.5000000000002 5288.0000000000009 2057.5000000000005 1035.5000000000002 4.3150000000000004 666.50000000000011 59.500000000000007 60.500000000000007 2756.5000000000005 10.305000000000001 3211.5000000000005 1.4850000000000001 8.0050000000000008 220.50000000000003 2017.5000000000002 2.6350000000000002 1196.5000000000002 3211.5000000000005 1.5850000000000002 132.50000000000003 1.0000000180025095e-35 5.3050000000000006 2756.5000000000005 87.500000000000014 130.50000000000003 2.7750000000000004 165.50000000000003 131.50000000000003 2467.5000000000005 5288.0000000000009 6.1050000000000013 1.9650000000000001 19.005000000000006 264.50000000000006 1807.5000000000002 2.2850000000000006 5288.0000000000009 263.50000000000006 264.50000000000006 192.50000000000003 206.00000000000003 133.50000000000003 10.500000000000002 132.50000000000003 131.50000000000003 100.50000000000001 97.500000000000014 65.500000000000014
decision_type=2 2 2 2 2 2 2 2 2 2 2 2 2 2 2 2 2 2 2 2 2 2 2 2 2 2 2 2 2 2 2 2 2 2 2 2 2 2 2 2 2 2 2 2 2 2 2 2 2 2 2 2 2 2 2 2 2 2 2 2 2 2 2 2 2 2 2 2 2 2 2 2 2 2 2 2 2 2 2
left_child=1 4 6 7 5 14 25 34 13 24 40 67 36 39 15 16 18 -18 19 -1 -21 26 48 -24 47 43 27 28 -7 -30 -31 -9 45 52 46 -14 49 -20 -39 72 58 -12 -23 -2 -28 -33 -3 -5 68 -6 55 70 -11 -27 74 -42 -36 -15 -8 -35 -61 -26 -38 -59 -65 -52 -44 -10 -13 -50 -34 -72 73 -4 75 -16 77 -76 -79
right_child=2 3 8 9 12 21 10 31 11 33 41 22 35 57 54 -17 17 -19 37 20 -22 42 23 -25 61 53 44 -29 29 30 -32 32 51 59 56 -37 62 38 -40 -41 50 -43 66 -45 -46 -47 -48 -49 69 -51 65 -53 -54 -55 -56 -57 -58 63 -60 60 -62 -63 -64 64 -66 -67 -68 -69 -70 -71 71 -73 -74 -75 76 -77 -78 78 -80
leaf_value=-0.052033807088966523 0.49508353368150798 -0.066693346362544551 1.760932803574405 0.11432220635150919 -0.19680632267223344 -0.38153550064565117 0.69503680128811685 0.11501483368083387 2.0758468735304159 0.31713365202503518 1.1130941081888057 3.2930285405713833 -0.033952168831447097 0.65974159804901278 0.011321724747608709 -0.15284027087026986 0.71323835067851571 339.1571381440034 -0.2492944907982782 196.41370403361771 -0.77597120227818417 -0.24993857661607072 6.2139231269890942 35.596072362538642 0.26136472472800065 0.76168077563700587 -0.34114086111600583 -0.28819165649463802 -0.34384503430103369 371.68151307397966 -0.38647095163663231 0.22934951031915693 0.83819940149785488 0.49914775981721765 0.0039609993571729672 0.14853902077882508 -0.13692958679924933 -22.335111700970195 -1.5779255865197923 1.5319374192567172 0.91815870476474226 1.3561571292188965 -0.20111392505974113 0.64490404322745076 -0.29235538266238281 0.39974625200256331 0.0038406634707503998 0.20105386426409397 1.8576610360263794 -0.15018693332069136 0.90905445574257637 -0.16314077857429224 0.43535610860596324 0.99115718591465907 0.27469366279667984 0.69756243458393563 0.062862519345382839 1.6247297345395344 0.82727045306817881 0.68543581501095774 0.27981283504737209 0.3491760040254564 -0.091855822561470055 1.7043003881681793 2.2834063310856072 1.0373196507788982 -0.11153388771334115 2.7330562052459939 1.382227403700619 4.3632214212411684 12.630947299437089 1.8954855399472372 1.2947528965450446 1.1013806578719851 -0.67107248033496969 0.65288114662864427 -0.018546882712810419 0.1145648099225143 -18.261888112624487
leaf_weight=2210 197628 1298465 2155 430353 1594028 10225 79943 700930 22150 202479 150422 2959 632235 1010 10912 10011 93 37 1838 53 938 2987905 433 34 277967 82513 1598247 51377 723 49 156 275072 155 121562 927199 134499 1444874 46 829 48414 45947 62611 740823 216582 2347985 108141 465749 372372 121 1076975 118598 35351 170118 32685 39938 39428 416917 361730 185623 63487 7080 210287 661874 157933 3112 98037 125589 2091 223 2013 22 77 50243 50412 484 5208 27061 58 24
leaf_count=2210 197628 1298465 2155 430353 1594028 10225 79943 700930 22150 202479 150422 2959 632235 1010 10912 10011 93 37 1838 53 938 2987905 433 34 277967 82513 1598247 51377 723 49 156 275072 155 121562 927199 134499 1444874 46 829 48414 45947 62611 740823 216582 2347985 108141 465749 372372 121 1076975 118598 35351 170118 32685 39938 39428 416917 361730 185623 63487 7080 210287 661874 157933 3112 98037 125589 2091 223 2013 22 77 50243 50412 484 5208 27061 58 24
internal_value=0 -2.25141 21.9476 2.10851 -4.21515 -5.30258 16.388 0.599759 32.2778 5.54607 18.9766 49.7309 -2.65342 31.5015 6.23512 22.2465 64.1578 1940.79 22.9062 59.7755 195.4 -5.44893 79.4091 167.062 4.1851 12.5711 -6.14892 -0.257194 25.1095 385.851 1770.94 3.24574 4.82802 8.65728 -0.353432 -0.0387983 -3.07302 -20.5951 -53.3832 26.2574 17.2073 23.6906 -4.72089 11.4684 -6.24228 5.54869 -0.96145 3.09111 71.709 -3.56018 18.4893 -2.92849 7.42222 16.5358 3.16332 16.3257 0.444621 33.0155 15.7493 11.0524 12.8948 5.98369 -2.45538 33.0538 34.3098 19.342 -3.76258 42.6507 63.1823 84.4231 43.6027 85.6229 24.1941 22.5684 1.03569 4.3719 -0.910947 -26.7293 -105.278
internal_weight=0 1.95911e+07 2.01505e+06 6.08378e+06 1.35073e+07 7.96282e+06 1.31002e+06 4.22808e+06 705033 1.8557e+06 780609 30024 5.54448e+06 675009 99740 16055 6044 130 5914 3201 991 7.86308e+06 5783 467 1.29098e+06 529408 4.00876e+06 62530 11153 928 205 1.11975e+06 418818 564726 3.10833e+06 766734 4.77775e+06 2713 875 151224 567576 213033 3.85432e+06 414210 3.94623e+06 383213 1.76421e+06 802725 5316 2.671e+06 302010 35605 372597 115198 83685 85375 1.34412e+06 523785 265566 192129 70567 488254 2.10675e+06 522775 161045 216635 866412 24241 3182 2134 254 99 102810 52567 43747 16120 27627 566 82
internal_count=21606137 19591087 2015050 6083783 13507304 7962819 1310017 4228078 705033 1855705 780609 30024 5544485 675009 99740 16055 6044 130 5914 3201 991 7863079 5783 467 1290979 529408 4008762 62530 11153 928 205 1119748 418818 564726 3108330 766734 4777751 2713 875 151224 567576 213033 3854317 414210 3946232 383213 1764214 802725 5316 2671003 302010 35605 372597 115198 83685 85375 1344116 523785 265566 192129 70567 488254 2106748 522775 161045 216635 866412 24241 3182 2134 254 99 102810 52567 43747 16120 27627 566 82
shrinkage=0.05


Tree=9
num_leaves=80
num_cat=0
split_feature=1 0 1 1 0 0 0 0 1 1 0 1 0 0 4 4 5 6 6 6 4 4 1 1 2 2 4 4 0 1 0 2 1 1 0 0 1 4 4 1 0 0 1 0 1 1 4 0 0 0 0 2 1 1 1 0 0 4 1 1 2 2 0 2 0 0 0 2 2 0 0 0 1 1 4 2 2 1 2
split_gain=9.65861e+08 1.60435e+08 9.38805e+07 2.96629e+07 2.46146e+07 1.21297e+07 1.18547e+07 9.74722e+06 7.78773e+06 6.31425e+06 6.22796e+06 5.09208e+06 4.86424e+06 4.43039e+06 1.53474e+07 4.22291e+08 1.1388e+09 2.36673e+09 9.02552e+07 8.54729e+06 2.38393e+07 7.04175e+08 2.33638e+06 1.85529e+06 7.80593e+06 1.16687e+08 3.32614e+08 7.00565e+09 1.81031e+06 1.78603e+06 1.63463e+06 1.03001e+07 1.51324e+06 1.50353e+06 1.49145e+06 2.44766e+06 1.34874e+06 1.25447e+06 6.77873e+06 1.1547e+06 1.11471e+06 1.07258e+06 968059 940351 883864 868243 834589 752211 710140 681897 648966 581421 518375 496159 480325 443344 415361 372876 369277 351347 336145 331128 320865 315881 309790 307748 293439 286136 601382 277195 287380 267408 266704 266284 258619 258524 711913 256466 254312
threshold=7.5450000000000008 884.50000000000011 14.635000000000003 4.0850000000000009 551.50000000000011 2325.5000000000005 35.500000000000007 1372.5000000000002 23.210000000000004 2.9450000000000007 1702.5000000000002 9.6550000000000029 359.50000000000006 1.0000000180025095e-35 75.500000000000014 74.500000000000014 3.5000000000000004 6.0000000000000009 9.5000000000000018 6.0000000000000009 59.500000000000007 60.500000000000007 5.6050000000000013 0.12500000000000003 90.500000000000014 89.500000000000014 69.500000000000014 67.500000000000014 3033.5000000000005 16.365000000000006 5288.0000000000009 263.50000000000006 4.9050000000000011 2.7950000000000004 5288.0000000000009 1870.5000000000002 1.9950000000000003 59.500000000000007 60.500000000000007 1.6450000000000002 2394.5000000000005 240.50000000000003 8.4650000000000016 1144.5000000000002 10.305000000000001 11.895000000000001 88.500000000000014 717.50000000000011 3033.5000000000005 150.50000000000003 1317.5000000000002 132.50000000000003 10.695000000000002 1.0000000180025095e-35 6.0050000000000008 2394.5000000000005 1591.5000000000002 87.500000000000014 3.1550000000000007 6.7750000000000012 134.50000000000003 133.50000000000003 165.50000000000003 130.50000000000003 1702.5000000000002 444.50000000000006 1165.5000000000002 134.50000000000003 138.50000000000003 5288.0000000000009 3211.5000000000005 3718.5000000000005 19.995000000000001 1.1950000000000001 95.500000000000014 192.50000000000003 206.00000000000003 3.8050000000000002 100.50000000000001
decision_type=2 2 2 2 2 2 2 2 2 2 2 2 2 2 2 2 2 2 2 2 2 2 2 2 2 2 2 2 2 2 2 2 2 2 2 2 2 2 2 2 2 2 2 2 2 2 2 2 2 2 2 2 2 2 2 2 2 2 2 2 2 2 2 2 2 2 2 2 2 2 2 2 2 2 2 2 2 2 2
left_child=1 4 5 7 6 11 13 33 29 36 22 42 23 14 15 19 17 -17 -18 20 -1 -22 50 24 25 -8 27 -27 44 48 67 -32 77 43 35 56 47 -21 -39 65 54 -25 -2 -3 -7 51 -33 74 61 -28 -5 63 -30 75 -12 -37 -9 -15 -41 -24 -44 -4 -31 -13 -53 -14 -35 -10 -69 70 -42 -54 -64 -43 -6 -36 -77 -11 -26
right_child=2 3 8 10 9 28 12 34 30 32 40 45 39 57 -16 16 18 -19 -20 37 21 -23 59 41 78 26 49 -29 52 62 31 46 -34 66 53 55 -38 38 -40 58 69 73 60 -45 -46 -47 -48 -49 -50 -51 -52 64 71 -55 -56 -57 -58 -59 -60 -61 -62 -63 72 -65 -66 -67 -68 68 -70 -71 -72 -73 -74 -75 -76 76 -78 -79 -80
leaf_value=-0.047713086460749593 0.54476048636325214 -0.041748446022126399 1.1808271058501532 0.15130055187491778 -0.18127234495984601 0.8909623330734 -0.36202545433463251 0.12397701607472406 2.1505525102497867 -0.020686016361401348 0.37808892473376787 0.77655519070115253 -0.24070734139856931 0.049130853413612181 -0.14519825666943806 0.8326906484716079 0.53403190397748757 666.39378182400367 -118.7748874830163 -0.23599592384639317 186.59302486203751 -0.73717269304728239 0.30189428857591483 -0.31931414801701963 -0.87933012783103703 -5.5497592598999912 -2.3816942036734976 900.12977927353086 1.1277534620571215 0.65622868180148552 3.1562582982652945 35.305828697681427 0.20575778822381588 0.035169801041197511 0.79628943014529452 0.31097568282386351 -0.088417244205462514 -21.218356572026792 -1.4990293391553891 -0.16510517787682669 0.61298997332693661 -0.2772886073067104 0.57555630897851051 0.033025244450004425 1.0960756414488122 0.97067424437928285 21.340163759563282 -0.11524477590709969 1.5635964634702866 -6.1712316986918454 0.24691879239278949 0.80027804737390851 1.2659771613737882 -0.14640762436092447 0.50016718555707995 0.49910623360319994 0.19938528344798329 0.26033400588687716 0.0002342656070383815 0.39674660458667504 0.71520739654580079 1.3856632724172 1.5611713527550761 0.57338652745242935 0.9109715265594357 -0.21026012170644745 0.093683836107253518 3.2785068414898713 2.2514352711771015 0.30785202289136443 0.89586899816050902 1.4750607286297168 1.6540055688181976 -0.23369700596285836 -0.14592354932469501 11.999399427934128 1.8007112569623178 0.05344650838794044 -0.2570179080636909
leaf_weight=2216 211666 1494025 42515 462147 1152674 95133 10324 481210 19948 387971 217736 50278 1655505 43775 10011 34 51 22 23 1840 53 938 304838 1963073 1697 298 460 23 49895 943 2515 20 108526 628131 155 169842 1374943 46 829 735424 69648 2092902 53763 585147 117258 123861 23 1163049 29394 160 288058 132660 42626 36470 127908 38395 294289 39988 35396 143629 217060 36814 393525 30883 120729 1664225 325178 1911 5607 6415 10307 23848 96299 420764 938893 22 77 166839 50364
leaf_count=2216 211666 1494025 42515 462147 1152674 95133 10324 481210 19948 387971 217736 50278 1655505 43775 10011 34 51 22 23 1840 53 938 304838 1963073 1697 298 460 23 49895 943 2515 20 108526 628131 155 169842 1374943 46 829 735424 69648 2092902 53763 585147 117258 123861 23 1163049 29394 160 288058 132660 42626 36470 127908 38395 294289 39988 35396 143629 217060 36814 393525 30883 120729 1664225 325178 1911 5607 6415 10307 23848 96299 420764 938893 22 77 166839 50364
internal_value=0 -2.07041 21.5427 2.41139 -3.88687 16.5921 -4.91844 0.962308 31.5277 -2.18533 6.01298 14.765 -5.04377 5.9165 21.1294 60.8845 1843.75 5246.06 -730.969 21.7469 56.7024 185.63 4.83974 -5.75637 -0.381532 23.4862 360.599 1186.86 21.821 30.7406 47.2443 71.4224 0.700142 0.0626983 3.63566 3.86925 -2.59877 -19.5431 -50.7141 -4.25286 9.26827 -5.8324 12.4974 -0.414094 20.084 17.1517 556.716 -2.94959 27.0734 -67.1928 3.76031 16.3143 24.9912 -2.6214 8.4653 6.91327 3.05186 2.99916 -3.15026 6.64545 13.7497 25.5177 31.553 13.9849 17.0604 -4.50887 1.10258 44.9925 50.2501 12.4817 12.9891 26.8197 31.5884 -5.39984 -3.30809 41.4226 81.3417 0.0321331 -5.54606
internal_weight=0 1.9707e+07 1.89917e+06 5.68363e+06 1.40233e+07 1.26966e+06 8.73044e+06 4.05294e+06 629514 5.2929e+06 1.63069e+06 940900 8.63062e+06 99826 16063 6052 130 56 74 5922 3207 991 1.19867e+06 4.54006e+06 63326 11265 941 321 328760 599490 30024 2558 663336 3.03248e+06 1.02046e+06 983736 4.62956e+06 2715 875 4.09055e+06 432014 4.47674e+06 482489 2.07917e+06 212391 458411 43 3.25462e+06 108723 620 750205 334550 116369 36724 345644 208237 775499 83763 770820 448467 270823 79329 490767 81161 253389 3.31973e+06 953309 27466 7518 86370 79955 66474 489824 2.51367e+06 2.09157e+06 254 99 554810 52061
internal_count=21606137 19706963 1899174 5683627 14023336 1269660 8730441 4052941 629514 5292895 1630686 940900 8630615 99826 16063 6052 130 56 74 5922 3207 991 1198672 4540065 63326 11265 941 321 328760 599490 30024 2558 663336 3032481 1020460 983736 4629559 2715 875 4090550 432014 4476739 482489 2079172 212391 458411 43 3254616 108723 620 750205 334550 116369 36724 345644 208237 775499 83763 770820 448467 270823 79329 490767 81161 253389 3319730 953309 27466 7518 86370 79955 66474 489824 2513666 2091567 254 99 554810 52061
shrinkage=0.05


Tree=10
num_leaves=80
num_cat=0
split_feature=1 0 1 1 0 0 0 0 1 0 1 3 1 1 0 0 4 4 6 6 4 4 0 1 0 1 4 4 3 3 3 0 4 4 1 0 0 0 0 1 0 4 1 3 0 6 1 1 3 1 1 1 0 1 0 1 3 1 3 3 4 1 0 0 1 1 0 0 0 1 3 0 3 4 4 4 3 1 1
split_gain=8.71135e+08 1.36734e+08 9.41319e+07 2.39589e+07 2.08279e+07 1.07289e+07 1.06667e+07 7.43848e+06 7.4012e+06 6.67688e+06 5.21992e+06 4.99293e+06 4.90257e+06 4.34656e+06 4.06344e+06 3.68803e+06 1.27703e+07 3.95969e+08 1.10733e+09 7.66765e+06 1.98748e+07 5.73675e+08 2.24726e+06 2.16377e+06 2.02257e+06 1.8049e+06 3.4315e+06 3.23839e+08 4.88494e+08 3.39359e+09 1.64722e+06 1.53948e+06 1.42147e+06 7.80252e+06 1.27979e+06 1.26687e+06 1.77926e+06 1.25732e+06 1.17424e+06 1.16356e+06 1.13216e+06 1.03194e+06 975501 949246 925569 912086 902769 571997 570672 521015 511406 500824 497427 477279 419102 408931 390589 372689 341672 930099 750530 660992 337724 335612 329569 320126 318025 316252 422450 309397 306932 300866 293201 285597 273247 271990 268444 262065 254094
threshold=7.1450000000000005 870.50000000000011 13.305000000000001 3.6650000000000005 541.50000000000011 2104.5000000000005 35.500000000000007 1358.5000000000002 23.210000000000004 1571.5000000000002 2.8450000000000002 263.50000000000006 8.7550000000000008 15.905000000000003 355.50000000000006 1.0000000180025095e-35 75.500000000000014 74.500000000000014 9.5000000000000018 6.0000000000000009 59.500000000000007 60.500000000000007 2881.5000000000005 5.0050000000000008 5288.0000000000009 0.12500000000000003 69.500000000000014 68.500000000000014 185.50000000000003 205.50000000000003 264.50000000000006 2057.5000000000005 59.500000000000007 60.500000000000007 8.7550000000000008 5288.0000000000009 1837.5000000000002 1078.5000000000002 706.50000000000011 4.8050000000000006 2647.5000000000005 65.500000000000014 1.5950000000000004 185.50000000000003 235.50000000000003 6.0000000000000009 10.305000000000001 8.7550000000000008 95.500000000000014 1.6450000000000002 5.205000000000001 2.2850000000000006 3211.5000000000005 7.8850000000000007 1207.5000000000002 1.0000000180025095e-35 131.50000000000003 6.0050000000000008 132.50000000000003 131.50000000000003 118.50000000000001 0.12500000000000003 3718.5000000000005 109.50000000000001 2.7950000000000004 2.0450000000000004 1552.5000000000002 2553.5000000000005 5288.0000000000009 10.695000000000002 264.50000000000006 2262.5000000000005 133.50000000000003 95.500000000000014 92.500000000000014 17.500000000000004 164.50000000000003 16.705000000000002 1.7250000000000003
decision_type=2 2 2 2 2 2 2 2 2 2 2 2 2 2 2 2 2 2 2 2 2 2 2 2 2 2 2 2 2 2 2 2 2 2 2 2 2 2 2 2 2 2 2 2 2 2 2 2 2 2 2 2 2 2 2 2 2 2 2 2 2 2 2 2 2 2 2 2 2 2 2 2 2 2 2 2 2 2 2
left_child=1 4 5 7 6 12 15 37 13 23 38 -10 53 40 25 16 17 19 45 20 -1 -22 34 54 52 26 27 41 48 -30 -26 50 -21 -34 -7 36 66 51 49 -12 -4 -8 73 -43 78 -19 56 -24 -29 -6 -11 -3 -13 -2 -5 -37 -14 -25 59 -17 61 75 -49 -15 -44 -40 -9 -33 -69 -36 77 -38 -48 -16 -60 -61 -58 -65 -27
right_child=2 3 8 9 10 22 14 35 11 31 39 24 46 63 42 58 -18 18 -20 32 21 -23 47 57 30 44 -28 28 29 -31 -32 67 33 -35 69 55 71 -39 65 -41 -42 43 64 -45 -46 -47 72 62 -50 -51 -52 -53 -54 -55 -56 -57 76 -59 74 60 -62 -63 -64 70 -66 -67 -68 68 -70 -71 -72 -73 -74 -75 -76 -77 -78 -79 -80
leaf_value=-0.031381497587312637 0.43682113105130443 -0.058300472700239442 1.0834343727680744 0.096428269147690426 -0.16689625291834775 0.67316373691718068 -0.35651886200693872 0.1024714695686005 1.9082816710382169 0.27689954210414974 -0.0080239695530941041 2.8595027799857764 0.59057657229337968 0.57289634868801842 -0.23083776995374597 0.065627332890922666 -0.13534393054756869 0.58255107556070607 324.8828331841363 -0.23610611084941976 163.90655125209264 -0.86893287397576968 0.87294953044256351 0.22501536151205817 16.914741871754327 -0.30523824646916742 -0.27166918474380786 -5.6075026563976129 500.3577571585065 -0.68097673854386886 5.8016474042318569 0.45619727585490621 -21.454830697866587 -1.4983729211276582 0.86863621374285316 1.8770551702499507 0.27020267973251516 0.031516222248635248 -0.11171225363829984 0.17460469959809502 1.3692450407030048 -0.61469071444139978 -0.16535265190840445 -3.0432955269249273 -0.25805081045044065 -11.088805880930954 0.73305946325428617 1.1122434296298218 -0.42296100897633515 -0.12260818426419501 0.38797451073337008 -0.0036941436754229246 3.8445211939932413 0.55267547687342744 0.17085034892087012 -0.15236099251475774 0.77041139864074815 0.30918697882690349 -0.030937832436452956 -0.48060374250525073 -0.22178763299220838 1.8448416176794518 1.3103217487106524 1.394747106954322 -0.045823902691196572 -0.067238430333955754 0.17140418871841726 0.64412894508197382 0.24316315049301562 0.98672758202897437 1.843315987351668 0.41996881542534298 0.84897425053340747 -0.20055267505697325 0.20354261119460371 0.71426774206718946 0.65636320273294346 1.5010979362180015 0.15165408416357862
leaf_weight=2248 168437 995872 97138 427313 1637667 64026 19228 403924 24203 223329 591159 3167 88433 996 1732758 20231 9926 70 36 1876 56 931 19889 317287 36 1866411 41979 69 42 173 452 139317 52 843 112388 250 138946 1192549 1271434 102309 53861 932 772255 708 2517437 22 83370 82301 230 1117030 193338 725999 2153 188252 339444 34990 108396 224602 30194 506 2174 1322 29138 66473 62323 593503 285647 52234 7514 109510 6130 44202 157836 1413475 21112 8105 98465 450456 3048
leaf_count=2248 168437 995872 97138 427313 1637667 64026 19228 403924 24203 223329 591159 3167 88433 996 1732758 20231 9926 70 36 1876 56 931 19889 317287 36 1866411 41979 69 42 173 452 139317 52 843 112388 250 138946 1192549 1271434 102309 53861 932 772255 708 2517437 22 83370 82301 230 1117030 193338 725999 2153 188252 339444 34990 108396 224602 30194 506 2174 1322 29138 66473 62323 593503 285647 52234 7514 109510 6130 44202 157836 1413475 21112 8105 98465 450456 3048
internal_value=0 -2.03196 19.8011 2.06849 -3.73411 14.7883 -4.70211 0.619718 29.118 4.94618 -2.17989 44.4842 12.8326 28.4349 -4.82371 5.58055 19.4604 55.3314 1795.72 18.2402 51.3091 169.601 18.9747 3.66849 70.8147 -5.48031 -0.181207 10.1303 794.281 1943.93 132.429 7.66173 -20.366 -53.1571 17.4019 3.11902 3.35638 -0.158914 -2.56392 0.378394 23.7076 -9.1841 -4.08968 -33.2627 -5.55684 -44.1685 14.7429 22.399 -32.3879 -2.97875 6.56879 -0.705532 65.1628 9.95933 2.5875 -2.75928 13.5705 5.19806 2.91555 5.4613 12.3939 16.0774 23.2807 29.7969 -3.12853 -1.95118 2.62052 9.94937 11.8741 18.5383 29.8319 6.12696 16.1782 -4.34464 1.31098 12.8811 14.3225 29.7484 -6.08987
internal_weight=0 1.95906e+07 2.01551e+06 5.74676e+06 1.38439e+07 1.31044e+06 8.53077e+06 3.82238e+06 705065 1.92438e+06 5.3131e+06 30011 893189 675054 8.43107e+06 99704 16060 6134 128 6006 3235 987 417252 1.30865e+06 5808 4.45026e+06 63361 21382 514 215 488 615732 2771 895 285924 907959 872719 2.91442e+06 4.61963e+06 693468 150999 20868 3.98081e+06 1640 4.3869e+06 92 536500 131328 299 2.7547e+06 416667 1.72187e+06 5320 356689 766757 35240 295294 541889 83644 32338 12107 9933 111439 524055 834578 1.86494e+06 689571 199065 59748 221898 523059 183148 241206 3.14623e+06 51306 8611 206861 516929 1.86946e+06
internal_count=21606137 19590631 2015506 5746757 13843874 1310441 8530772 3822379 705065 1924378 5313102 30011 893189 675054 8431068 99704 16060 6134 128 6006 3235 987 417252 1308646 5808 4450257 63361 21382 514 215 488 615732 2771 895 285924 907959 872719 2914420 4619634 693468 150999 20868 3980811 1640 4386896 92 536500 131328 299 2754697 416667 1721871 5320 356689 766757 35240 295294 541889 83644 32338 12107 9933 111439 524055 834578 1864937 689571 199065 59748 221898 523059 183148 241206 3146233 51306 8611 206861 516929 1869459
shrinkage=0.05


Tree=11
num_leaves=80
num_cat=0
split_feature=1 0 1 1 0 0 0 0 1 1 0 3 0 1 0 5 5 2 2 6 0 0 2 1 1 2 2 3 3 1 1 0 0 1 1 6 0 1 0 1 1 0 1 0 2 0 6 0 3 2 0 1 5 1 1 0 0 2 3 3 3 1 2 3 5 3 0 2 3 2 3 3 3 1 2 1 1 1 1
split_gain=7.86304e+08 1.3074e+08 7.63161e+07 2.38698e+07 2.0591e+07 9.99992e+06 9.50786e+06 8.4179e+06 6.02344e+06 5.16742e+06 4.54211e+06 4.50612e+06 4.23276e+06 3.91442e+06 3.33161e+06 1.22779e+07 2.53876e+07 3.8195e+07 2.61946e+08 2.86887e+08 1.82537e+06 1.69976e+06 1.69511e+06 1.67877e+06 1.58153e+06 7.81097e+06 1.04782e+08 4.46048e+08 1.8948e+09 1.55305e+06 1.44349e+06 1.32693e+06 1.993e+06 1.16995e+06 1.15562e+06 1.04982e+06 1e+06 989161 922463 833246 729892 685679 676929 612094 609584 601531 576079 574459 554186 482529 453673 450420 397478 363292 359397 346233 324375 314311 309806 307191 836321 658068 349130 343269 300203 297163 290996 290469 278423 860190 718196 498933 275185 270754 264003 258477 253936 252929 250429
threshold=7.5450000000000008 891.50000000000011 14.635000000000003 4.2950000000000008 561.50000000000011 2262.5000000000005 35.500000000000007 1401.5000000000002 23.210000000000004 3.0450000000000004 1837.5000000000002 263.50000000000006 371.50000000000006 9.5050000000000008 1.0000000180025095e-35 4.5000000000000009 2.5000000000000004 160.50000000000003 178.50000000000003 9.5000000000000018 5288.0000000000009 3033.5000000000005 263.50000000000006 5.8050000000000006 0.12500000000000003 90.500000000000014 89.500000000000014 185.50000000000003 229.50000000000003 2.9450000000000007 16.365000000000006 5288.0000000000009 1903.5000000000002 2.0450000000000004 5.0050000000000008 9.5000000000000018 250.50000000000003 1.9650000000000001 1165.5000000000002 10.505000000000001 11.675000000000002 1358.5000000000002 8.4650000000000016 729.50000000000011 214.00000000000003 3033.5000000000005 9.5000000000000018 2467.5000000000005 132.50000000000003 160.50000000000003 2881.5000000000005 10.855000000000002 1.5000000000000002 1.0000000180025095e-35 1.1950000000000001 2394.5000000000005 1654.5000000000002 160.50000000000003 164.50000000000003 132.50000000000003 131.50000000000003 0.12500000000000003 147.50000000000003 144.50000000000003 5.5000000000000009 264.50000000000006 1401.5000000000002 133.50000000000003 135.50000000000003 100.50000000000001 131.50000000000003 185.50000000000003 264.50000000000006 1.0000000180025095e-35 135.50000000000003 8.6050000000000022 3.5050000000000003 1.3950000000000002 1.7950000000000002
decision_type=2 2 2 2 2 2 2 2 2 2 2 2 2 2 2 2 2 2 2 2 2 2 2 2 2 2 2 2 2 2 2 2 2 2 2 2 2 2 2 2 2 2 2 2 2 2 2 2 2 2 2 2 2 2 2 2 2 2 2 2 2 2 2 2 2 2 2 2 2 2 2 2 2 2 2 2 2 2 2
left_child=1 4 5 7 6 13 14 29 30 33 23 -10 24 42 15 16 46 -18 19 -19 50 39 -22 41 25 26 -8 -28 -29 38 45 32 56 43 -11 -17 -26 54 -3 75 48 -5 -2 -6 49 67 -1 -12 -15 -37 -13 -23 57 -33 -14 -34 -9 -48 -50 60 -16 73 63 -61 -51 -32 -25 -4 70 71 -27 -70 -52 -62 -44 -7 -39 -38 -55
right_child=2 3 8 10 9 21 12 31 11 34 47 20 37 40 59 35 17 18 -20 -21 22 51 -24 66 36 68 27 28 -30 -31 65 53 55 -35 -36 44 77 76 -40 -41 -42 -43 74 -45 -46 -47 52 -49 58 64 72 -53 -54 78 -56 -57 -58 -59 -60 62 61 -63 -64 -65 -66 -67 -68 -69 69 -71 -72 -73 -74 -75 -76 -77 -78 -79 -80
leaf_value=-0.32508243264599385 0.48895342938115516 -0.032657404369208595 1.0616682934212258 0.15518568875635236 -0.14521244300926681 0.68202714234437822 -0.2878001251735271 0.12731317861846386 1.8128675812148647 0.010300523866015461 0.42110160854906414 2.5899751899361565 -0.21145552146142679 0.62170013461419238 0.062209979023439901 -0.37282464716165387 -0.53191037272176989 18.20812587482774 -0.5246379126473989 95.853432581608502 5.4967766514453267 1.0235673059277628 17.232671853267785 0.28360118110215077 -0.28624347118814525 -0.26547076201748743 -1.0663829546127277 353.64092338717717 -0.70057384963488079 0.065019420042741111 1.4193945104050618 1.783202390670759 0.29168408002360996 -0.072967998758360172 0.19360535862878803 -1.8609325519458062 -0.24517521591905 -0.12411260334742419 0.039115404174787732 0.98880210957424497 0.85918603882664757 0.25372984145708949 0.50607168158808524 -0.10005183088934831 -0.68966145854999972 1.4157717784296333 -1.0465431773521263 0.58618109238317118 0.81373895248616501 -6.1615794776295267 1.5213560922014202 1.220548632611643 -0.51403484443113112 -0.24363853835365715 -0.17984146400303777 0.45099123771049315 0.19749111932510333 -3.3891875752312615 0.6967711204269148 0.10776099241284171 0.61325830506791723 1.5702784471837612 0.1350798790268205 -0.42237642047853852 -3.0040039931788813 1.782400801719322 0.36708873715067442 1.2535659811519821 -0.19507815487332791 -0.29855238668007139 0.77949435350726604 -3.7676633985477013 3.6360831545339085 0.060847582121847543 0.63845981769818927 0.84761720613625258 0.050988993594516391 -0.19166374505341682 0.018084938422210935
leaf_weight=3509 208263 1625573 42532 443651 2130682 32230 10429 516891 24203 506227 228595 2421 1915444 97508 20254 4847 2131 575 2129 150 455 54190 33 246551 2155957 6887 759 49 164 894743 485410 250 162807 1280019 103574 669 2341542 389788 617832 121752 136587 293170 46895 1158135 696 29297 232 68490 132629 123 163 62482 437 20907 1694081 43145 241633 374 98768 5810 7470 1493 39099 6436 194 5704 180990 36766 149 43007 2160 284 2736 3155 191171 87671 21867 243817 16239
leaf_count=3509 208263 1625573 42532 443651 2130682 32230 10429 516891 24203 506227 228595 2421 1915444 97508 20254 4847 2131 575 2129 150 455 54190 33 246551 2155957 6887 759 49 164 894743 485410 250 162807 1280019 103574 669 2341542 389788 617832 121752 136587 293170 46895 1158135 696 29297 232 68490 132629 123 163 62482 437 20907 1694081 43145 241633 374 98768 5810 7470 1493 39099 6436 194 5704 180990 36766 149 43007 2160 284 2736 3155 191171 87671 21867 243817 16239
internal_value=0 -1.86865 19.4333 2.21863 -3.49183 14.9707 -4.41214 0.992144 28.4345 -1.90555 5.69306 42.26 -4.52187 13.2117 5.29458 18.4848 41.3579 90.6609 166.298 685.453 67.2739 19.4467 125.808 4.80256 -5.15536 -0.21314 23.5114 337.533 1616.29 0.18645 27.7427 3.51581 3.74242 -2.27049 0.828693 -14.9263 -5.22196 -3.76486 -0.257825 17.9333 15.2406 3.8879 11.0958 -2.58619 -36.4521 24.4434 -12.6349 9.18318 14.4336 -52.4466 61.9046 22.5812 -33.2692 -2.32874 -3.93236 6.50115 2.99338 -49.8467 15.2763 2.76326 5.17573 11.7469 1.24225 -3.41715 -84.5837 28.4722 6.37888 23.0128 -5.36648 -6.41755 -0.31964 -50.766 70.3436 8.9845 12.2476 16.0621 -2.29623 -4.80257 -2.58443
internal_weight=0 1.97063e+07 1.89987e+06 5.60147e+06 1.41048e+07 1.27015e+06 8.92617e+06 4.14002e+06 629720 5.17864e+06 1.46145e+06 30011 8.82638e+06 911821 99783 16066 9537 4985 2854 725 5808 358325 488 1.16436e+06 4.8052e+06 63888 11401 972 213 3.13815e+06 599709 1.00187e+06 964476 4.56884e+06 609801 6529 4.74132e+06 4.02118e+06 2.2434e+06 241653 465492 736821 446329 3.28882e+06 1682 108595 4552 297085 328905 986 5320 116672 1043 37396 3.60952e+06 205952 758524 606 231397 83717 32372 12118 51345 12246 317 491114 427541 79298 52487 43440 9047 433 2899 10625 238066 119901 411655 2.58536e+06 37146
internal_count=21606137 19706271 1899866 5601467 14104804 1270146 8926167 4140020 629720 5178637 1461447 30011 8826384 911821 99783 16066 9537 4985 2854 725 5808 358325 488 1164362 4805204 63888 11401 972 213 3138148 599709 1001872 964476 4568836 609801 6529 4741316 4021180 2243405 241653 465492 736821 446329 3288817 1682 108595 4552 297085 328905 986 5320 116672 1043 37396 3609525 205952 758524 606 231397 83717 32372 12118 51345 12246 317 491114 427541 79298 52487 43440 9047 433 2899 10625 238066 119901 411655 2585359 37146
shrinkage=0.05


Tree=12
num_leaves=80
num_cat=0
split_feature=1 0 1 1 0 0 0 0 0 1 1 3 1 1 0 5 5 2 2 2 0 0 1 1 2 2 3 3 0 2 0 1 0 0 1 6 0 0 0 1 0 1 1 2 6 1 1 1 2 2 0 1 0 0 5 1 3 1 0 0 0 2 1 3 2 3 3 1 2 3 5 2 1 1 3 1 3 3 2
split_gain=7.09889e+08 1.11526e+08 7.67587e+07 2.18885e+07 1.44744e+07 8.98073e+06 8.85531e+06 6.62237e+06 6.14023e+06 6.02038e+06 4.1523e+06 4.06677e+06 3.64783e+06 3.50827e+06 3.00646e+06 1.1089e+07 2.29412e+07 3.45093e+07 2.37292e+08 2.75825e+08 2.2037e+06 2.10694e+06 1.96987e+06 1.73865e+06 7.54345e+06 1.03018e+08 4.60769e+08 1.93057e+09 1.64739e+06 1.52984e+06 1.46203e+06 1.31073e+06 1.20824e+06 1.41557e+06 1.11735e+06 948636 940020 939800 775708 689197 644627 581808 555090 548707 519911 501754 470568 447564 435483 419350 398713 379586 378724 374465 358724 334486 330292 312146 302868 297823 391712 289858 288353 314630 283666 278413 757893 610708 314465 309915 270933 267322 270113 263107 255611 253122 251717 634832 630280
threshold=7.1450000000000005 830.50000000000011 13.305000000000001 3.5650000000000004 490.50000000000006 35.500000000000007 2017.5000000000002 1241.5000000000002 1534.5000000000002 23.210000000000004 2.3650000000000007 263.50000000000006 8.9050000000000029 15.905000000000003 1.0000000180025095e-35 4.5000000000000009 2.5000000000000004 160.50000000000003 178.50000000000003 169.50000000000003 303.50000000000006 2756.5000000000005 5.0050000000000008 0.12500000000000003 90.500000000000014 89.500000000000014 185.50000000000003 229.50000000000003 5288.0000000000009 263.50000000000006 2017.5000000000002 3.9750000000000005 1571.5000000000002 5288.0000000000009 8.9050000000000029 9.5000000000000018 631.50000000000011 2756.5000000000005 1001.5000000000001 1.4450000000000001 1976.5000000000002 8.7550000000000008 10.505000000000001 214.00000000000003 9.5000000000000018 5.1050000000000013 7.8850000000000007 0.69500000000000006 160.50000000000003 263.50000000000006 1175.5000000000002 2.2850000000000006 3718.5000000000005 3423.0000000000005 1.5000000000000002 1.0000000180025095e-35 137.50000000000003 6.1050000000000013 109.50000000000001 2553.5000000000005 5288.0000000000009 132.50000000000003 19.005000000000006 264.50000000000006 160.50000000000003 132.50000000000003 131.50000000000003 0.12500000000000003 147.50000000000003 144.50000000000003 5.5000000000000009 137.50000000000003 11.035000000000002 1.4650000000000001 135.50000000000003 5.4050000000000011 135.50000000000003 131.50000000000003 100.50000000000001
decision_type=2 2 2 2 2 2 2 2 2 2 2 2 2 2 2 2 2 2 2 2 2 2 2 2 2 2 2 2 2 2 2 2 2 2 2 2 2 2 2 2 2 2 2 2 2 2 2 2 2 2 2 2 2 2 2 2 2 2 2 2 2 2 2 2 2 2 2 2 2 2 2 2 2 2 2 2 2 2 2
left_child=1 4 6 7 5 14 12 38 22 13 36 -11 46 37 15 16 44 -18 19 -19 23 34 50 24 25 -7 -27 -28 49 -30 45 -12 -9 40 -8 -17 73 -4 51 -22 -34 -23 56 48 -1 -10 -2 -25 -37 52 -5 -3 -13 -43 64 -35 -14 -24 -15 -32 -61 -44 -60 -64 -46 66 -16 -68 69 -67 -50 -36 -73 -6 -48 -33 77 -26 -78
right_child=2 3 9 8 10 20 21 32 30 11 31 28 42 58 65 35 17 18 -20 -21 39 41 57 47 76 26 27 -29 29 -31 59 75 33 55 71 43 -38 -39 -40 -41 -42 53 61 -45 54 -47 74 -49 70 -51 -52 -53 -54 -55 -56 -57 -58 -59 62 60 -62 -63 63 -65 -66 68 67 -69 -70 -71 -72 72 -74 -75 -76 -77 78 -79 -80
leaf_value=-0.30882829807377715 0.39078573316885173 -0.067324627274716192 0.98563783119533022 0.077063935979868728 -0.16997903355664604 -0.27506409908541402 0.60820806426150797 0.075465474531675458 0.23635009256812356 1.7222242022385181 -0.050754866982591844 2.8114514055047133 0.53525985400837317 0.47371419522178226 0.059235453967777109 -0.35430833121824717 -0.50645910457595522 16.059424651439389 -0.49840601387456895 90.125109951979951 -0.21126697875180686 0.7678388107634454 0.20020283729253779 -0.27796892339797452 -0.25021152855484757 -1.0501097913528665 372.67605224609378 -0.72762088964817428 5.2219378428734267 16.371039032213616 0.40487234894881463 0.063817977295765146 0.1670468784628506 1.6940422726213702 0.72413924690363318 -1.7678859747478513 -0.11156576602103702 1.2529937324005169 0.0035101584094559407 -0.15918222011284119 0.3093481840030981 0.96942097231007729 0.63473243261404688 -0.65681420536564417 -0.99421604679704745 0.34029249783232696 0.42684491622445586 -0.24071442211537761 -5.85350049793478 1.2441957115952222 0.14519990687949874 -0.017356265430189963 3.8322001367259184 1.1445027240776897 -0.48833308712935219 -0.14145878975883619 0.65490680052397321 0.27926339321453508 1.3216654888242141 0.58227589587144291 0.20629710655462574 0.76864501073286384 1.3923690226793168 1.905321602121822 -3.2197282440108772 0.10282645023062148 0.42676357583045965 1.510232211092384 0.12842373474190899 -0.4011865638503288 -2.8538037146662472 0.80492705269429077 0.93419115212868042 -0.13692808213658977 0.5422175333787157 0.20288780925500172 -2.3006181452966405 0.7439461571597471 -0.28365389360712584
leaf_weight=3509 162279 1000130 102645 481527 1436688 10060 82777 788106 247624 24203 928281 3783 83322 996 20231 4846 2129 561 2129 162 3286244 25082 339972 1778101 6553 732 45 150 455 33 165732 131217 309026 250 52481 669 2269472 48354 1305163 787287 107190 88135 57440 695 232 218597 72229 1474917 123 341 387481 613028 1196 46734 437 34548 187441 197301 361852 53591 7956 136291 158160 3047 374 5803 10625 1482 39074 6429 194 108751 64314 1036623 143165 43588 391 2127 41229
leaf_count=3509 162279 1000130 102645 481527 1436688 10060 82777 788106 247624 24203 928281 3783 83322 996 20231 4846 2129 561 2129 162 3286244 25082 339972 1778101 6553 732 45 150 455 33 165732 131217 309026 250 52481 669 2269472 48354 1305163 787287 107190 88135 57440 695 232 218597 72229 1474917 123 341 387481 613028 1196 46734 437 34548 187441 197301 361852 53591 7956 136291 158160 3047 374 5803 10625 1482 39074 6429 194 108751 64314 1036623 143165 43588 391 2127 41229
internal_value=0 -1.83429 17.8748 1.64863 -3.46879 -4.38942 13.3482 0.319428 4.28037 26.2881 -2.28962 40.147 11.4098 25.672 5.0379 17.5698 39.3126 86.2086 158.124 653.101 -4.51665 16.8343 3.07951 -5.12214 0.154644 23.8927 342.882 1708.85 63.9102 119.517 6.71548 -0.542067 2.25631 3.56163 15.3065 -14.1866 -2.69608 21.425 -0.502974 -4.02401 4.07389 19.7793 13.2864 -34.6558 -12.0031 5.70171 9.10171 -5.22155 -49.8242 58.8094 2.1489 -0.966716 61.1329 20.6018 -31.6057 -2.56544 12.3618 4.58472 26.8957 8.79504 10.6735 14.5788 26.9289 28.0413 -47.3543 2.63173 4.92975 11.1878 1.18329 -3.24154 -80.3545 16.4598 17.0593 -3.12253 10.0706 1.96991 -5.03045 -0.131942 -6.05205
internal_weight=0 1.95906e+07 2.01551e+06 6.25722e+06 1.33334e+07 7.48754e+06 1.31044e+06 4.15744e+06 2.09978e+06 705065 5.84587e+06 30011 842167 675054 99704 16060 9533 4981 2852 723 7.38784e+06 468274 1.40628e+06 3.3143e+06 61287 10987 927 195 5808 488 693500 1.10309e+06 1.23912e+06 451014 308323 6527 4.74278e+06 150999 2.91832e+06 4.07353e+06 416216 159951 464494 1681 4552 466221 377673 3.25302e+06 986 5320 869008 1.61316e+06 4979 134869 1043 34798 270763 537273 524055 227279 61547 193731 523059 161207 606 83644 32338 12107 51306 12232 317 225546 173065 2.47331e+06 215394 174805 50300 8680 41620
